/* Generated by Edge Impulse
 *
 * Permission is hereby granted, free of charge, to any person obtaining a copy
 * of this software and associated documentation files (the "Software"), to deal
 * in the Software without restriction, including without limitation the rights
 * to use, copy, modify, merge, publish, distribute, sublicense, and/or sell
 * copies of the Software, and to permit persons to whom the Software is
 * furnished to do so, subject to the following conditions:
 *
 * The above copyright notice and this permission notice shall be included in
 * all copies or substantial portions of the Software.
 *
 * THE SOFTWARE IS PROVIDED "AS IS", WITHOUT WARRANTY OF ANY KIND, EXPRESS OR
 * IMPLIED, INCLUDING BUT NOT LIMITED TO THE WARRANTIES OF MERCHANTABILITY,
 * FITNESS FOR A PARTICULAR PURPOSE AND NONINFRINGEMENT. IN NO EVENT SHALL THE
 * AUTHORS OR COPYRIGHT HOLDERS BE LIABLE FOR ANY CLAIM, DAMAGES OR OTHER
 * LIABILITY, WHETHER IN AN ACTION OF CONTRACT, TORT OR OTHERWISE, ARISING FROM,
 * OUT OF OR IN CONNECTION WITH THE SOFTWARE OR THE USE OR OTHER DEALINGS IN THE
 * SOFTWARE.
 */
// Generated on: 14.04.2023 21:20:18

#include <stdio.h>
#include <stdlib.h>
#include "edge-impulse-sdk/tensorflow/lite/c/builtin_op_data.h"
#include "edge-impulse-sdk/tensorflow/lite/c/common.h"
#include "edge-impulse-sdk/tensorflow/lite/micro/micro_mutable_op_resolver.h"
#include "edge-impulse-sdk/porting/ei_classifier_porting.h"

#if EI_CLASSIFIER_PRINT_STATE
#if defined(__cplusplus) && EI_C_LINKAGE == 1
extern "C" {
    extern void ei_printf(const char *format, ...);
}
#else
extern void ei_printf(const char *format, ...);
#endif
#endif

#if defined __GNUC__
#define ALIGN(X) __attribute__((aligned(X)))
#elif defined _MSC_VER
#define ALIGN(X) __declspec(align(X))
#elif defined __TASKING__
#define ALIGN(X) __align(X)
#endif

#ifndef EI_MAX_SCRATCH_BUFFER_COUNT
#define EI_MAX_SCRATCH_BUFFER_COUNT 4
#endif // EI_MAX_SCRATCH_BUFFER_COUNT

#ifndef EI_MAX_OVERFLOW_BUFFER_COUNT
#define EI_MAX_OVERFLOW_BUFFER_COUNT 10
#endif // EI_MAX_OVERFLOW_BUFFER_COUNT

using namespace tflite;
using namespace tflite::ops;
using namespace tflite::ops::micro;

namespace {

#if defined(EI_CLASSIFIER_ALLOCATION_STATIC_HIMAX) || defined(EI_CLASSIFIER_ALLOCATION_STATIC_HIMAX_GNU)
constexpr int kTensorArenaSize = 1776;
#else
constexpr int kTensorArenaSize = 752;
#endif

#if defined(EI_CLASSIFIER_ALLOCATION_STATIC)
uint8_t tensor_arena[kTensorArenaSize] ALIGN(16);
#elif defined(EI_CLASSIFIER_ALLOCATION_STATIC_HIMAX)
#pragma Bss(".tensor_arena")
uint8_t tensor_arena[kTensorArenaSize] ALIGN(16);
#pragma Bss()
#elif defined(EI_CLASSIFIER_ALLOCATION_STATIC_HIMAX_GNU)
uint8_t tensor_arena[kTensorArenaSize] ALIGN(16) __attribute__((section(".tensor_arena")));
#else
#define EI_CLASSIFIER_ALLOCATION_HEAP 1
uint8_t* tensor_arena = NULL;
#endif

static uint8_t* tensor_boundary;
static uint8_t* current_location;

template <int SZ, class T> struct TfArray {
  int sz; T elem[SZ];
};
enum used_operators_e {
  OP_FULLY_CONNECTED, OP_SOFTMAX,  OP_LAST
};
struct TensorInfo_t { // subset of TfLiteTensor used for initialization from constant memory
  TfLiteAllocationType allocation_type;
  TfLiteType type;
  void* data;
  TfLiteIntArray* dims;
  size_t bytes;
  TfLiteQuantization quantization;
};
struct NodeInfo_t { // subset of TfLiteNode used for initialization from constant memory
  struct TfLiteIntArray* inputs;
  struct TfLiteIntArray* outputs;
  void* builtin_data;
  used_operators_e used_op_index;
};

typedef struct {
  TfLiteTensor tensor;
  int16_t index;
} TfLiteTensorWithIndex;

typedef struct {
  TfLiteEvalTensor tensor;
  int16_t index;
} TfLiteEvalTensorWithIndex;

TfLiteContext ctx{};
static const int MAX_TFL_TENSOR_COUNT = 4;
static TfLiteTensorWithIndex tflTensors[MAX_TFL_TENSOR_COUNT];
static const int MAX_TFL_EVAL_COUNT = 4;
static TfLiteEvalTensorWithIndex tflEvalTensors[MAX_TFL_EVAL_COUNT];
TfLiteRegistration registrations[OP_LAST];
TfLiteNode tflNodes[5];

const TfArray<2, int> tensor_dimension0 = { 2, { 1,84 } };
const TfArray<1, float> quant0_scale = { 1, { 0.10242179781198502, } };
const TfArray<1, int> quant0_zero = { 1, { -45 } };
const TfLiteAffineQuantization quant0 = { (TfLiteFloatArray*)&quant0_scale, (TfLiteIntArray*)&quant0_zero, 0 };
const ALIGN(16) int8_t tensor_data1[256*84] = { 
  -85, -70, -10, -97, -103, -58, 91, -38, 46, 19, 81, 26, 44, -43, -101, -87, -20, -115, 100, 84, -5, -73, -31, 61, -25, 99, -29, 29, -44, 65, 48, 46, 35, 7, 58, -114, -115, -53, -103, 106, 80, 44, -8, -89, -38, 50, 78, 37, -9, -61, -71, 33, -90, 10, 32, 71, 35, -50, 114, 66, 44, -1, 19, 96, -22, -69, -90, 39, -90, 45, 51, -115, -44, 109, -4, 28, 32, -121, -71, -112, 8, -32, -95, 67, 
  21, 21, 92, -1, 8, -44, -102, 110, 18, -72, 63, 105, -110, 88, 113, -91, -104, -72, 17, -76, -88, -41, -68, 82, 84, 53, -27, -77, 1, 118, -88, -22, 89, 93, -76, -78, 78, 26, -74, 31, 103, -41, -22, 24, -95, -6, 67, 84, 19, -93, 9, -46, -109, -87, 86, -58, 18, 100, 12, -13, -64, -18, -21, 101, -60, -38, -121, -108, -98, -96, -61, -46, 75, 87, 64, -22, 105, -31, 73, 97, 81, 74, 70, 74, 
  -3, 90, 2, -78, 12, 56, -64, -63, 4, 71, -86, 63, 40, -54, 104, 37, 59, -56, 43, -25, 71, -47, 113, 68, 8, -103, 46, 41, 49, 16, 116, -44, 94, 22, 110, 110, 2, 88, 45, -104, -48, -106, 4, -92, 104, -49, 64, 106, -31, -30, -84, -5, 94, -34, -60, 117, 101, 45, 88, -19, 48, 70, 56, 112, -97, 96, -113, -86, -69, -27, -120, -33, -104, -43, -12, 91, 108, -74, -97, -82, 35, 68, -107, -81, 
  -115, -8, -34, 94, 37, -65, 62, 109, 81, 63, -110, -86, -66, -66, 5, 53, 53, 118, 83, -16, -20, 71, 102, 24, 72, -117, -24, 41, 109, -29, 77, 79, -23, 41, 84, 85, -7, -24, -18, 115, -95, 36, -33, -13, 7, 19, -47, 92, -106, 59, 90, 57, -34, 85, 114, -33, 30, -36, 63, -31, -90, 82, -15, 84, 76, -64, -98, -101, -43, -51, -113, 83, -16, 67, -90, 83, 57, -6, 26, -87, 21, -61, 41, 97, 
  7, 96, 51, -82, -82, 106, 80, -37, -33, -82, -14, -47, -76, 102, 92, -45, -22, 24, -25, -97, -55, 50, -45, 107, -90, -45, 63, 83, -111, -79, -27, -112, 94, 49, -54, 67, -86, -38, 100, -73, -15, -122, 87, 12, 98, 30, -103, -106, -112, -48, -26, 94, 73, -71, -50, -118, 46, 117, -64, 77, -12, 21, -106, -22, -68, 21, -62, 33, -17, 34, 105, 60, 120, -99, -107, -117, -38, -61, -31, 53, -37, 5, -28, 42, 
  58, -100, -11, 66, 115, 25, -104, -83, -37, 20, -56, 38, -49, -87, 20, -75, -40, 18, -89, 86, 71, 112, -23, 84, 108, 90, -28, -10, -98, 78, -45, -35, 49, 47, -31, 11, -91, 109, 14, -41, -73, 27, -118, -82, 111, -27, -96, -3, 35, 81, 21, 82, 18, -24, -46, 21, -48, -116, 71, 59, 66, 76, -36, -31, 12, 95, -79, 39, 70, 2, 64, 93, 104, 20, -20, 4, -32, 0, -97, -5, -2, -58, 69, -83, 
  -90, -22, -103, -90, -61, -45, -25, 26, -114, -43, -27, -36, -4, -102, -48, -88, -58, -106, -55, 58, 61, 71, -70, -91, -8, -87, -24, 9, -104, -86, -29, 30, -27, -74, -106, -55, -96, 40, 75, -52, -44, 85, -72, 63, -114, -15, 87, -37, -95, -38, 66, -75, 85, 97, 50, 75, 96, 113, 41, 65, 7, 39, 76, 58, 31, 7, 28, -31, 121, 71, 110, -68, -98, 39, 99, 41, -35, 44, 49, 60, 35, 105, -58, 119, 
  -40, 53, 110, -6, -12, -104, 47, 69, 31, -8, -46, 103, -62, 74, 76, 41, 42, 43, 44, 63, 19, -72, -58, -57, -64, -27, 19, -12, 65, -54, -84, 28, 90, -16, -107, -30, 72, -106, 41, 98, -12, 94, 44, -29, 93, -3, -111, -28, -51, -17, 1, 109, -62, 92, 37, 104, 70, -12, -89, -108, 68, 107, 105, -59, -71, 74, -3, 49, -49, -44, -103, -75, 90, 90, 17, 13, 3, -64, -10, 21, 73, 111, -65, 114, 
  36, -24, -107, -92, -41, 100, 29, 94, -105, 103, 73, 101, 102, -19, -88, -23, -84, -113, -52, -65, 32, -107, 7, -116, 115, -15, -113, -36, -53, -55, 27, 9, -100, 12, 57, 91, -95, -112, -63, -91, 51, 52, -22, 78, 60, 65, -91, 68, 67, 8, -114, -56, 23, -62, -110, 70, 26, 75, -46, 41, 84, -12, -114, 17, -67, -73, 8, 14, 50, 87, -97, 114, -97, -84, 21, -61, 99, 59, -26, -2, -92, -55, 22, -15, 
  -6, -55, 29, -96, -72, 105, 117, 98, 103, -71, 3, -4, -33, -86, -74, -66, -1, 23, -23, 78, -36, -72, 112, -40, -83, -46, 45, -11, 113, -115, 75, 2, 28, -98, -30, 77, -77, -34, -29, 81, -98, 66, -47, 96, -67, -19, 28, 29, -17, -107, 107, 8, -15, 47, 116, -106, -75, -105, -84, -114, -73, 63, -67, 99, 38, -78, -66, -102, 82, 76, -58, -43, -32, -97, 34, 55, 72, -67, 46, -102, 74, -105, -13, 63, 
  -94, -83, 12, 26, 6, -86, 33, -37, -36, -55, -44, -67, -81, 29, 30, -108, 100, 8, -28, 3, 85, 26, 44, -23, 82, -103, -57, 84, 100, -24, -44, -118, 104, 39, 116, 76, 96, -14, 44, 57, 112, -58, -63, 75, -65, -91, -33, -116, 107, -104, -115, 30, 1, 11, 118, -29, -98, -2, -117, 114, -105, 98, 10, 82, 4, 118, 1, -68, 3, 50, -62, -104, -4, 79, -113, 5, 63, 39, -73, 10, -99, -83, -42, 2, 
  101, -55, 8, 66, 69, 6, 3, -9, 77, -57, -80, -7, 105, -62, 57, 102, -108, 74, -46, -40, -103, -29, 80, 15, -39, -87, -30, 37, 6, 19, 119, 112, -19, 29, -63, 54, -98, 5, -43, -106, 104, 14, 89, 25, 102, -25, -37, -120, 102, 111, -11, 112, -64, 29, 80, 97, 32, 123, -93, -19, -63, 14, 43, -29, -76, 80, -57, 113, 113, -29, 94, -13, 70, -31, 26, 23, -44, 96, 71, -73, 44, 52, -26, 53, 
  43, -44, 102, -14, 90, -27, 65, -77, -55, -67, -70, -65, 74, -95, -118, 105, -27, -25, -27, -40, -75, 4, 102, 80, -61, -98, -62, -33, -43, -101, 19, 71, 106, -49, 57, 64, 70, 61, -59, -112, 75, 112, -49, 104, -74, -91, -58, 11, 0, 8, -21, 105, 17, 90, 47, 32, 43, -102, 3, -99, 52, 106, 74, -34, -114, 103, 62, -45, 26, 90, 90, 31, 29, -15, -84, 31, 50, -73, -47, 3, 45, -23, 99, 64, 
  13, -5, 20, -57, 78, 0, 78, 36, 82, 58, 58, 117, -92, -87, -89, 96, 58, 84, -18, 48, 24, 39, -64, 52, 90, 67, 115, 57, -43, -71, -105, 11, 31, -112, 29, 109, -63, 85, 107, 112, 41, 66, 11, -21, -100, -33, 78, -59, -101, -93, -45, -77, 107, 82, 16, 10, -88, 67, 37, 27, -74, -15, -37, -45, -62, -11, 45, -36, 114, -67, 112, 63, 69, -113, -46, 81, -28, 63, 95, 11, -101, 31, 72, 117, 
  -66, 99, -62, -72, -97, -112, -102, -45, -26, 57, -69, -62, 31, -83, 47, -31, -61, -15, -83, -92, 51, 34, -85, 92, 4, 101, -10, -71, 25, 119, -88, -115, -61, -65, 64, -108, -97, -63, -31, -32, 1, -108, -5, 45, 33, 6, 0, -64, 55, -53, 99, -32, -42, 25, 85, -98, 11, 35, -18, -19, 26, -31, 112, 4, -42, -23, -117, -70, 13, 98, 56, 75, 60, 75, -90, 26, -108, 93, -68, -80, -7, 15, 14, 37, 
  -73, -80, 84, 5, 81, -8, 44, -105, 50, -117, -81, -115, -45, 8, -120, 115, 29, 114, 44, 88, -101, -39, 29, 118, -106, -44, 41, 93, -37, -109, 80, 58, -14, -68, -108, -76, -77, 114, -55, 83, -37, -13, 82, 28, 108, -90, 75, -17, -82, -107, -84, 38, -115, 71, 76, 96, -22, -112, 21, -71, -97, -2, 70, -37, 71, -5, 112, -36, -38, -113, 13, -105, 96, -56, 38, -61, 7, -37, -100, 83, 95, 37, 66, 22, 
  -88, 97, -101, -60, -98, -28, 35, 93, 114, 65, -72, -116, -53, 66, 65, -62, -117, 110, -109, 18, -110, -50, 25, 76, -16, 45, -13, 0, -35, -105, -21, -5, 39, 3, 94, 98, 66, 71, -24, 114, 16, 50, 61, -49, 107, -6, 54, -35, 81, -28, -54, 25, 2, -107, -103, 25, 28, -59, 42, 13, 53, -102, 84, -21, 64, -20, -106, -114, -76, -53, 95, 99, 57, -44, -64, 81, 78, 50, -54, -40, 102, 94, -14, 27, 
  -52, -48, -40, -63, -106, 100, 28, -99, 69, -101, -4, -96, -94, 41, -14, -62, 107, -52, -32, 77, 67, 56, 96, -90, 24, 101, 26, 36, 10, 115, 33, 83, -33, 79, -74, -52, 9, -9, 20, 99, 28, 66, -17, 66, 44, 110, 49, 100, 11, -64, 114, -42, -3, 45, 26, -9, 1, 48, -53, 50, -105, 58, 47, -77, 108, 35, 7, 6, 57, 53, 109, -14, 113, -1, 52, 68, 55, -87, 52, -88, 88, -53, -108, -15, 
  -79, -28, -89, -49, 18, 89, -10, 81, 35, 84, -87, 14, -43, -75, 12, -93, -97, -55, 45, -77, -44, 46, 29, -1, 48, -85, -52, -65, 65, -107, 80, 81, -54, -72, -29, -14, 115, -71, -62, 77, 108, 45, 86, 39, -37, 70, 34, 94, -98, -72, 78, 118, -87, 13, -4, -22, -14, 34, 29, 111, 18, -70, 95, 103, 80, -37, 93, -81, 120, -110, -39, -107, -58, -48, -54, -61, -108, -75, -30, 26, 76, -96, 91, 31, 
  -34, -33, -25, 40, -46, -65, -49, -6, 34, -11, 115, -26, 16, 70, 103, -26, 47, 18, 13, 75, 26, 74, -70, 29, 24, 28, 109, 118, 67, 36, -35, -87, 37, -102, -89, 59, -45, 14, 100, 6, 3, -12, 106, -51, -65, 67, -66, 12, -107, 67, 81, -65, -56, 106, 69, -65, -19, -86, 7, 26, 19, -5, 77, -65, 24, 98, 35, 19, 58, -62, -83, 20, 16, -66, 16, 22, 56, 83, 89, -43, -78, 55, -79, -25, 
  -82, -104, -88, 28, 20, -30, 31, 94, -109, 69, -83, 66, 59, 31, 7, 108, 4, 90, -47, -75, -12, 109, 69, 28, -23, 72, 27, -21, 87, 96, -70, -15, 98, 108, 40, 9, 24, -12, 9, -87, 9, -49, 68, 76, 47, -58, 41, -12, -72, -29, -14, 59, 3, 35, -12, 30, -49, -75, -47, 0, 85, -27, -68, 46, -31, 109, -41, -83, 102, 75, -40, -85, -2, 64, -38, 99, -98, 88, -71, 99, 2, -61, -116, 20, 
  25, -34, 61, 83, -40, -57, -38, -24, -64, 14, -56, -107, -46, 8, 3, 100, -85, -114, 42, 84, 20, 73, -47, 55, -22, -27, 61, -116, -37, -79, 33, -99, 75, 92, 90, -18, -109, -60, -6, -90, -71, 60, -54, -99, 53, 103, 9, 98, 46, 118, -113, -33, -90, -51, -3, -97, 106, -113, 60, 15, 65, 59, 0, 75, 96, 51, -64, 65, -55, -10, -92, 33, 79, -98, 34, 67, -48, 98, 86, -41, -2, -53, 31, 44, 
  -115, -10, -91, -13, 77, -86, -66, 35, 71, -96, -14, -45, 3, -57, 99, -82, -24, 47, 32, 2, -12, 12, 46, 54, 88, 30, 109, -54, 110, 87, -58, -54, 112, -18, -88, -63, 44, -27, 69, 31, -1, -25, 37, 7, -30, -81, 5, 31, -104, 9, 56, 72, -38, 17, 106, -90, -44, 100, -109, 106, -54, 29, 31, -14, -23, 119, -92, -120, 102, 115, 78, 116, -96, -51, 33, -97, -23, -58, -76, -65, 69, 26, 7, -43, 
  -32, -35, 71, -50, -54, 34, 30, -97, -89, 3, -60, 14, -74, -92, -72, 41, -96, 2, -113, 52, 67, 17, 45, -2, 101, -82, -25, -46, 30, 77, -29, -53, -47, 77, 13, 80, 38, -6, -78, 43, -14, 70, 105, -30, 63, -91, 52, -43, -90, 69, 34, -16, -13, 113, 68, 104, -54, -14, 17, 111, -41, -89, -107, 89, 23, 113, -114, -93, 17, -31, 38, 96, 21, -56, 104, 31, -116, 18, -82, -84, 86, -75, 43, -24, 
  65, 50, -29, 106, 23, -6, -8, -107, -70, 67, 41, -111, -117, 69, 88, -11, 106, -82, 105, 62, -60, 84, -29, -88, 111, 79, -19, 5, -20, -46, -28, 14, -48, 68, -33, 66, -27, 34, 68, -58, -106, -46, -82, 60, -71, -69, 34, 59, 109, 3, 103, -100, 25, -75, -10, 34, -81, -66, -62, -112, -111, 45, -49, 68, -58, -24, -76, 79, 25, -104, 12, 121, -12, 13, 72, 48, 56, -75, 7, 111, -25, -73, -33, 51, 
  -69, -65, -83, -110, -74, 0, 68, 12, -115, 99, 108, -4, -62, -86, -106, 95, -61, -120, -3, -77, 9, 75, 70, -28, -50, -93, 52, 53, 45, 9, -114, 10, 86, -65, 82, -92, 102, 28, 31, 105, -102, 1, -96, -83, 93, -100, -27, -99, 56, -110, -33, 114, -31, -16, 9, -60, -75, -110, -9, -20, -31, -109, -113, 26, 108, -11, -95, 18, 71, -71, -113, 60, 103, 54, -30, 46, 88, -71, 20, -82, -4, 36, 3, -82, 
  101, 68, 82, -45, -99, -95, -82, -57, -31, -79, -41, 18, -75, 60, 33, -79, 105, -68, -37, 102, 60, 105, 35, -41, 21, 2, -110, -6, 105, 73, 103, 108, 110, 43, 67, -83, 55, -75, -73, -94, 116, -58, 45, 1, 53, 76, -70, -7, -1, 100, 114, 70, -52, -102, 17, 24, -92, 57, -79, -86, -46, 39, 4, -75, 58, -67, 63, 100, 114, 121, -18, 6, -61, 25, -12, 40, 105, 97, 73, 32, 58, 9, -15, 86, 
  109, 14, -2, 82, 90, 42, -52, -30, -46, -49, 87, 19, -101, -108, 21, 41, 70, 66, -5, -34, 71, 118, -1, -114, 14, -1, -83, -79, -98, -20, -90, -81, -116, 21, 16, 64, 105, -109, -113, -100, 86, 116, 10, 93, 27, 71, 67, -108, -50, 1, -97, 41, 6, 117, 9, -10, 75, -14, -44, 83, -7, 7, -55, -88, 106, -54, 120, 9, 54, 60, -72, 54, 95, -2, 35, 48, -70, 23, 62, -64, 102, 83, -17, 20, 
  48, -100, 48, 47, -38, 103, -10, -90, -11, 29, 111, 20, 85, 55, -20, -51, 108, -94, -27, -8, 4, -51, 87, -33, -8, -96, 66, -61, -44, -92, -88, -34, -107, 37, 58, 111, -23, -11, -76, 113, -50, 61, 79, 25, 31, 8, -27, 59, -118, 84, -7, -25, -115, -91, -44, 44, -60, -86, -108, 109, 38, 39, -3, -1, -57, 106, 48, 7, -104, -53, -30, 24, 0, -61, -10, 60, 4, 74, 40, -1, -31, -32, 100, 93, 
  24, 88, 50, 21, -13, 98, 42, -5, -62, -60, -97, -76, -5, -76, 65, 52, -70, -50, 43, 119, 104, -36, 4, -103, -70, -114, 37, 66, 90, -7, 83, -97, -101, -2, -71, 23, 116, -28, 116, -45, -22, 20, -47, 70, 21, 21, -54, -94, 50, 22, -89, -75, 8, -103, -54, 68, -65, 0, -90, 6, 88, 39, -3, -25, 80, 92, 108, -4, 59, 109, -65, -4, -2, -118, 34, -46, -59, 5, -84, -33, -63, 118, 30, 78, 
  -101, 106, -65, 67, 65, -54, 97, 34, 109, 60, -109, -89, -16, 48, 106, 69, -81, 70, 40, -9, -42, -47, 120, -20, 5, 10, -114, -112, -96, 45, 15, -34, 15, 51, -38, 23, -12, -16, -54, 0, 24, 118, 64, 82, -51, 59, 107, 116, 33, 90, -103, 54, -53, 45, 112, -85, -122, 63, -82, -35, -49, 44, -78, -109, 118, -42, 53, -60, -41, -101, 103, 55, -102, -73, -10, -56, -66, 50, 120, -60, -19, -104, -5, 120, 
  67, -65, -42, -26, 28, 72, 94, -78, 61, -62, 85, -74, -27, -91, 56, 91, 88, -51, 63, 54, -5, -91, 35, 50, 78, -61, -114, -42, 101, -69, -107, -73, 25, 69, -100, 108, -90, 57, -114, -116, -107, 68, -45, 46, -32, 73, 28, 16, 72, 45, 8, -83, 30, -26, 45, -14, 67, 46, 63, 22, 7, -90, 83, -21, 109, -103, -100, 114, -80, 96, -37, 66, -116, -16, -96, 33, -84, -77, 58, 117, 83, 94, 58, -24, 
  76, -114, 44, 75, -25, 77, 102, 53, -15, -99, -7, -6, -59, -76, -71, 54, -14, 88, 50, 87, 101, 32, 88, 35, -28, -95, -33, -110, 25, -77, -50, 42, -11, -47, 83, 92, -36, -20, 33, -59, 21, 6, -3, 94, 100, -24, -73, -34, -74, 4, -111, -31, 89, -40, 31, -50, 22, 106, -33, 19, -1, 89, -61, 59, 72, 92, 58, -111, -45, -16, 28, 57, 74, -86, -98, -94, -83, 21, 23, 101, -54, -67, 77, -25, 
  27, 9, -46, -60, -55, 77, 50, 32, -67, 22, -48, -97, -92, 46, -26, -106, -114, 111, -87, 1, 6, -103, -64, -106, -88, 6, -53, 2, 40, -93, 113, 17, -33, 46, 100, -47, -91, 110, 81, 21, -10, 104, 54, 80, -107, -117, -55, 53, 108, -2, 4, -96, 35, -101, -63, 0, -2, 43, -74, 9, 22, -89, 88, -39, -106, -111, -34, -4, 9, 88, -118, -97, 102, -46, -24, 64, 40, -72, 68, 45, 53, -111, -19, 57, 
  -115, -18, 24, 99, -81, 5, 57, -20, 63, 93, 78, -37, 36, 23, -65, 11, 96, -65, 2, -12, -51, -61, 0, 75, 37, 93, -103, -84, 64, 18, -88, -103, 20, 11, -70, 22, 96, 114, -52, -36, -77, -101, 36, 109, -82, -12, 52, -24, 56, 29, -45, 14, 107, -103, -1, -83, -32, 32, 106, 118, 46, 97, 113, 42, 70, -109, -78, 18, -47, 12, 43, 21, -47, -94, 27, -105, -12, -69, -106, -83, 91, 111, -75, 23, 
  113, -71, 36, 7, -36, 56, -65, -98, 21, -49, -66, 90, 3, 97, 12, 61, 51, 16, -51, 75, 90, 36, 92, 39, -37, 88, 82, -102, 4, -6, -105, -19, -112, -55, 65, -76, -74, 0, 43, 109, -13, -99, 70, 19, 67, 11, 24, -76, -56, -79, -43, -82, 25, -1, 49, 95, -68, 26, -11, -25, -7, 77, -54, 104, -51, -3, -115, -37, 22, 114, 5, 44, 45, -79, 9, -110, 84, -87, 28, 20, -34, 100, 86, 14, 
  100, 103, 27, 49, 92, -39, -61, -20, -41, 16, -78, 118, 90, 42, -73, 14, 52, -34, 110, 108, -1, 75, 1, 1, 26, 36, 114, 18, 101, -1, -96, 7, -86, 36, 45, -34, 98, 18, -14, -15, 101, -107, -62, -5, -81, -52, 38, -62, 118, -1, 53, 53, -83, 8, -19, -77, 7, 4, 38, 51, -35, 9, 83, 80, 87, 61, -86, 91, 5, -74, 80, 13, -29, -27, -3, 108, 100, 28, -69, 12, 1, -19, -51, -32, 
  3, 6, -71, -5, -57, -34, -37, 32, 82, -113, -64, -32, -34, -108, 79, 93, -83, -67, 0, 54, -113, -98, -15, 7, -95, -9, 52, -98, -50, 24, -62, -34, -69, -34, 88, -3, 1, -7, 100, 91, 50, -34, -87, -42, 91, -114, -74, 62, 111, 21, -41, -69, -108, -116, -20, 74, 58, 0, -112, 82, 61, -113, 7, -88, 55, 9, -42, -50, -59, -113, 1, 64, -101, -74, -41, 32, 37, -21, 82, 17, -100, -1, -29, 70, 
  -24, 10, 68, 94, -79, 42, -33, -24, -15, -78, -86, -33, 55, -95, 9, -16, -93, 42, -48, -10, 89, 79, 90, 45, -103, -101, 54, -82, -14, -110, 15, -110, -12, -103, -17, 54, 29, 31, 9, -105, 74, -63, 25, -56, 26, -90, 30, 19, -12, -95, -59, -52, -50, 8, 109, 9, -16, 94, -80, -117, 85, -77, -83, -84, 52, -94, 50, 39, -108, -70, -64, 103, 18, -21, -12, 52, -28, -24, 8, 72, -5, -81, 97, 62, 
  55, 115, 96, 15, 107, 94, -84, 88, -7, 23, 96, -117, -4, -27, -7, -80, -88, -7, 102, -78, -13, -27, 12, 54, 34, 117, -88, -98, -102, 15, -57, -51, 89, 26, 27, -29, 76, -111, -115, 91, 103, 79, 25, -40, 55, -52, -46, -97, 1, -51, 0, 48, -7, -21, 28, 103, -99, 67, -70, 50, 14, -39, -44, 114, -61, 102, 8, 94, -1, 73, 34, 101, 26, 15, 55, -71, -3, -59, 69, 117, 111, -26, 110, 39, 
  -71, -76, 35, 59, -64, 56, 64, 57, -77, 110, 101, -85, -30, -75, 69, -10, -20, 16, 19, -5, 27, -69, 95, 63, -5, 76, 109, -15, -94, -75, -9, 105, -59, 62, -105, -113, 1, 16, -82, 3, 61, -6, -88, 95, 41, -101, 104, -110, 13, -61, 113, -50, 97, -26, -70, 111, -105, 87, 12, -70, -47, 110, -115, -47, -39, -8, 104, -4, 20, -58, 77, 87, -115, -114, -41, -16, 8, -86, -113, 17, 42, 97, -65, 92, 
  1, -14, 16, -87, -55, 46, 77, 76, -11, -46, 13, 98, 12, -25, 68, -106, 5, 37, -83, -13, 24, 39, -70, 22, -80, 96, 33, -11, -71, 111, -100, 109, 20, 96, -16, -48, 11, -11, -62, 16, 104, -47, -59, -46, 54, 17, 65, 47, -33, 90, -51, 6, 102, -55, -107, 8, 31, 3, -74, 27, 11, -7, -78, -84, -7, 96, 16, 43, -39, 17, -55, 78, 76, 82, 25, -11, -53, 20, 87, 57, 43, 20, -95, 122, 
  -92, -51, -16, -47, -42, -56, 64, 118, -114, -113, 58, 91, -56, 26, -93, 71, 18, 42, -2, 70, 30, 61, -46, -77, 79, 3, 71, 111, 99, -33, -46, 51, 60, -8, 62, 58, 60, 15, -35, -20, 6, -33, 47, 19, 115, -29, -111, -114, -9, 82, -77, 107, -1, 25, 111, 56, 18, 26, -40, 19, 8, 65, -6, 60, 73, -35, 64, -20, -21, -14, 16, 25, -5, -76, 101, -7, 64, 55, -66, -117, -31, -115, -87, -55, 
  -92, 95, 46, -47, 108, -38, -35, -10, 45, 92, -64, 82, -119, 79, 2, -45, -42, 106, 47, -100, -71, 17, -107, 84, 78, -45, 51, -54, -45, -81, -57, 16, -115, 114, 106, -9, 57, 61, -1, 6, -111, 85, 70, 51, -102, -20, -84, -89, 107, -24, -56, 107, 73, -57, 48, -63, 15, -67, -43, -97, 46, 7, -8, -34, -98, 86, 4, 53, 58, -73, 49, -36, 75, 85, 98, 26, -79, -12, 101, -51, -78, 50, 112, -91, 
  -70, 115, 14, -27, -82, 20, 69, 96, -38, -115, -64, 57, -74, 36, 62, -54, -99, 77, 86, -54, 13, 101, -108, 43, -96, 112, 92, 82, -97, 5, 36, 33, 119, -31, 98, -41, 59, -42, 20, -3, 73, 23, -84, -37, -118, -70, -6, 15, 8, -65, 20, -38, -107, -21, -68, -86, -39, 59, -85, 57, 33, 118, -107, 42, -39, 115, 51, 108, 72, 11, 18, 106, 49, -92, 96, 82, -113, -37, -1, 103, 59, -30, 51, -11, 
  -25, -45, 112, -39, 112, 76, -104, -87, 4, -19, -41, 34, -100, 14, -92, 114, 30, 86, -1, -16, -101, -49, 9, 13, -88, -86, 50, -14, 107, -74, 6, -55, 3, 103, 65, 115, 57, -108, 96, 100, -8, 71, 42, -62, -72, 89, 102, 84, 0, 94, -4, 22, -101, 37, 103, -74, 96, -56, -101, 32, -102, -86, 101, -2, -64, 7, -27, -2, -113, 102, 112, 8, 20, -25, -82, -36, -65, 72, 13, -38, -115, -26, 63, -103, 
  -14, -100, -30, 2, 5, 35, -31, 105, -80, 67, -52, -25, 91, 38, -21, 64, -18, -48, 93, 26, -82, -119, 16, 72, 99, -37, -1, 50, -96, 96, 3, 114, 106, 6, -117, 57, -118, 34, 42, 111, -111, -63, -92, -111, 6, -23, -47, 51, -68, -119, -119, 4, 76, -24, -15, -19, 44, -20, 57, 14, 72, 110, 14, -66, -3, 77, -22, -99, 100, 39, -106, 48, -46, 118, -41, 79, 24, -41, -10, -31, 22, -92, 1, 93, 
  -81, -56, 109, 98, 117, 49, 69, 0, 19, 119, -11, -41, -112, -102, -89, 106, 117, 80, 71, 19, 35, 0, -3, 116, -6, -59, -1, -18, 29, -106, -91, -117, -90, 39, -55, -13, -17, 110, 86, -87, 36, -95, -119, -29, 91, -95, 114, -86, 89, -75, 53, -82, 65, 117, 46, -100, -109, -23, -2, -7, 39, -18, -113, -75, -4, 93, -73, 24, 1, 116, 106, 19, 36, -113, -90, 64, 52, -59, 28, -47, -79, 8, -82, 119, 
  40, -4, -43, 28, -92, -114, 111, 18, 44, 43, -46, 112, 13, 32, -121, 46, 20, -1, 87, -49, 40, -9, -84, -46, -102, -85, 57, 15, -3, -40, 55, -92, 74, -83, 48, 4, 78, -14, -113, 68, -80, -69, 72, -22, -114, 105, -40, 40, 49, 103, 70, -1, -28, 34, -82, 85, -47, 82, 19, -107, 9, -59, -37, -101, -5, -66, -54, 8, 54, 116, 43, -61, 63, -68, 112, -14, -104, -62, 105, -96, -107, -98, 25, 46, 
  10, 22, -63, -91, -25, 108, 52, -99, 11, -116, 82, -72, -93, -48, -23, 56, -82, 73, 56, -5, 71, 4, 8, -104, 23, -1, -83, 25, -99, 117, -88, 62, -25, -12, 96, 18, 27, -64, 23, 67, 108, -92, 99, 73, -58, 6, -87, -4, 65, 100, 29, 79, 4, 82, -79, -39, 82, -79, 92, 46, -47, 81, -36, -30, -105, 9, 83, -92, -90, -87, 49, -42, 112, 83, 50, -60, -92, 23, 39, -44, 26, 85, 67, 53, 
  -113, 30, -23, -43, 54, 97, 27, -110, -65, 17, -50, -99, 28, 0, 7, 105, -40, -30, 80, -45, 18, 89, -69, 57, -13, -86, 76, -83, 59, -85, -59, -95, 26, -7, -79, -88, 114, 89, 28, -11, 119, -97, -54, 75, 43, -24, 48, 101, 88, -39, 81, -107, 116, -111, 103, -65, 109, -50, -73, -80, -26, -67, 8, -76, 106, 28, 105, -37, -118, -66, 34, 50, -79, -82, -94, -88, -2, 102, 10, -24, -100, 65, 4, 102, 
  -5, -12, 89, -91, 39, 85, 91, -46, 80, 116, 118, -40, -9, 70, -36, -108, 12, -9, -14, -109, 54, -48, 118, -23, -29, -84, 27, 81, 20, 30, 100, 103, 51, 49, 33, 29, -92, -107, -23, 7, 61, 109, -100, -118, -18, -58, -15, 100, 84, 105, 79, -70, -1, -36, -49, -9, 60, 74, -6, -24, -61, -41, 106, -87, -95, 67, -77, -72, 91, 79, -72, -42, 4, -118, 20, -79, -96, -52, 35, 115, 31, -62, 36, -49, 
  20, -72, 107, 115, 33, 104, -17, 42, -94, 35, -17, -66, -24, 116, -81, 90, -3, 25, 65, 114, -90, 22, -78, 15, 79, 32, -5, 75, 13, 87, 99, 56, 108, 116, -18, -8, -7, 84, 54, 8, -116, -94, 42, -117, -76, 0, 77, 15, 59, -5, -56, 102, 68, -40, 72, 118, 28, -4, 43, -113, -106, 6, -68, 116, 41, 25, 12, 113, 61, 79, 48, 64, 31, -67, 50, 99, 109, 35, 15, -117, -14, -100, 107, 22, 
  -34, -50, 64, 21, 106, 40, -75, -104, 100, -59, -64, 63, 18, 112, 4, -22, -18, 71, -27, 13, 64, 117, -4, -73, 97, 73, -8, -64, 62, 95, 92, 57, -61, -21, -13, 83, 103, -35, 41, -80, 35, -7, 98, -21, -46, -69, 91, 48, 81, -75, 47, 90, -25, 56, -20, 96, -117, -76, -51, -55, -88, 4, 117, -1, 27, -22, 14, 91, -19, -93, -15, 6, -106, -66, -77, -27, 114, 29, 85, -83, 110, -106, 64, 115, 
  117, -86, 30, -21, -52, 68, 75, 3, 92, 94, -87, -94, -31, 46, -82, 68, 36, -103, 33, 35, 89, -46, -52, 45, 8, -113, -107, 69, -43, 53, 45, -102, -8, 40, -110, 88, 10, -82, -107, -106, -46, -5, 116, -110, 64, -68, -108, -19, 81, 86, -30, 12, -81, -58, 33, -102, 35, -42, -70, 14, -57, 45, 91, -54, 16, 60, -117, 66, -114, -69, -85, -116, 97, -79, 71, -100, -22, -113, -95, -114, -42, 50, -1, 15, 
  -39, 54, 44, -24, -38, -61, -20, -111, 35, 111, -50, 15, 26, 59, 92, 89, -46, 116, -37, -115, -110, -108, 42, -101, 111, -55, 111, -7, 82, -29, 105, 59, -12, -62, -91, 14, -85, -1, 92, -104, -97, 52, -114, 29, 53, -65, 48, -48, -92, -110, -57, -37, 118, 110, 56, -92, 21, 67, 92, -60, 51, 24, -81, 45, 110, -111, -22, -64, 51, -58, -113, 18, -117, 54, 95, -71, -15, 14, 11, 18, -95, 24, 105, 68, 
  70, -113, 93, -96, 16, -17, 47, -111, 24, -48, 106, 68, -81, -92, 110, 54, -89, -25, -56, 58, 12, -63, 118, -18, 12, -8, 19, -105, 30, 107, 40, 22, 45, 47, 112, -1, -50, 92, -5, -6, 109, -22, 60, 29, -74, 29, 25, -92, 79, 46, 29, -70, -1, 51, 65, -114, 40, -58, -112, 30, -44, -38, -31, 31, -16, -60, 96, -114, -44, 78, 38, 112, 2, -42, -72, -56, -57, -8, -75, -62, -60, 92, -28, 65, 
  -115, 28, 102, 27, 103, -38, 122, 70, -62, -91, -49, -79, -87, -90, -84, -21, 109, -13, -19, -40, -93, -69, -66, -55, -44, -105, -25, -112, -58, -29, 95, 69, 4, -7, -71, 113, 33, 36, 46, -50, 18, -13, -21, 48, 107, 80, 46, 88, 115, -37, 72, 111, 59, -79, 78, -55, -49, -85, 27, 19, -108, -102, -84, -7, 85, -85, -27, -80, 108, -53, -87, -47, 36, 48, 39, -91, -39, 28, -36, -98, -45, -70, 108, -72, 
  95, -20, 43, 5, 75, -89, -8, 34, -92, -84, 103, 40, -83, 54, 118, 39, 105, 3, 60, -4, -69, -71, 67, 25, 72, 66, -95, -11, 62, 41, -52, -61, -54, -116, -59, -79, -13, 33, -15, -70, -99, 20, 114, -79, -114, 34, -57, -75, 64, 60, 46, -45, -54, 71, 101, -26, 83, 17, 9, 89, 58, 3, 87, -98, -11, 99, -70, -77, 106, -79, -5, 9, -6, -49, -46, 102, 97, 89, -49, 104, -104, 107, -113, -79, 
  80, -91, -70, -105, -107, 110, 114, 34, 27, 20, -119, 26, 36, -70, -62, -69, 23, 62, 59, 13, -90, 61, -36, -77, 54, 5, 17, 47, -109, 16, 50, -57, 74, 111, 0, -111, 25, -75, -86, 49, -81, -119, -10, 111, -97, 103, -34, -68, -94, -79, 58, -24, -62, 102, -97, -120, 87, -110, -22, -73, -25, -75, 21, 3, -53, -34, 20, 81, -36, 66, -116, 93, -50, 90, 93, -25, -84, 72, -101, -73, -83, 15, 20, -77, 
  16, 54, 93, -95, 76, 52, 113, -90, 50, -101, -112, -66, 89, -27, 115, 65, 63, -33, 119, -90, -5, 85, -10, 32, -96, -82, -78, -54, 103, 24, 81, 23, -28, -47, -3, 34, 64, -31, 116, -9, -4, 82, -100, -90, -76, 27, -28, -36, 37, 96, 41, -90, 41, -19, 102, -42, -33, 103, -115, -54, 29, -103, -1, 50, -68, -8, -30, 8, 80, 13, -15, 102, -45, -36, -58, -32, -28, 59, -66, 39, -98, 11, -41, 91, 
  -46, -35, 104, -51, -19, -77, -109, -77, -33, 69, -81, 17, 52, -88, -37, -37, 121, 23, -49, -14, 48, -85, 6, 13, 99, 112, 34, 74, 59, -123, -97, 81, 23, -81, 36, -4, -24, 103, -78, -99, 47, -78, -23, 75, -103, 47, 0, 80, 73, 52, 98, -81, -31, -43, 99, -72, 68, 34, 13, -36, 79, -41, -26, 54, -107, 105, 71, -116, 94, 3, 22, -25, 87, -68, -73, 8, -19, 8, -34, -33, 95, 2, -41, -113, 
  48, 84, -51, 3, -113, 12, -61, 79, 39, 27, -11, 97, -91, -22, 111, -48, 74, -33, -26, 28, -7, -45, 61, 62, -33, 78, -83, -94, -28, -76, 41, -29, 95, 98, 91, -84, -32, -48, -47, 1, 69, 39, -65, 99, -56, -14, -56, -88, 16, 107, -71, 86, -90, -101, -60, -30, -19, 106, -66, 27, 2, -18, 48, -81, 70, -13, 50, -76, 71, -97, -102, 93, 73, -40, -52, 55, -16, 33, -4, 108, -76, 3, 75, -56, 
  43, 43, 9, -41, 41, -109, 100, 10, 74, -53, -43, -85, 99, -57, 37, -114, -9, 43, 103, 60, -87, 29, 13, -101, -36, 39, -69, -73, -34, 88, 53, -24, -64, -19, 34, -91, 7, -19, -53, -69, 28, 25, -120, 42, -37, -55, 42, 96, -17, 52, -31, -103, 19, 2, -83, 55, -19, 114, 33, -95, 110, -8, -55, -80, -26, 72, 10, 121, 29, -44, -102, -70, -30, -80, 86, -63, -94, 94, -68, -55, -49, 74, 8, -9, 
  73, 107, 117, 24, -36, -75, 77, 101, 88, 69, 33, 38, -23, 63, 54, 68, -54, 110, -79, 48, -93, -102, -43, -103, -7, -90, 93, 70, -53, -1, -105, -65, 93, -99, -32, 4, -16, -11, 31, 114, -91, -61, -117, -110, -71, 116, 95, -92, -36, -54, 25, -92, -110, 106, 107, -21, 47, 119, 38, -67, -62, -67, -103, -23, -32, 41, 2, -43, 16, 5, -16, -11, -44, -91, 36, 15, 25, 88, -31, 114, 59, 86, 61, -97, 
  -17, -43, 65, -8, 82, 47, 90, -94, -67, -75, 60, -86, 0, 40, -66, -6, -63, 51, 44, -104, -47, -74, -7, -25, 55, -6, -107, -34, -117, 58, 117, -12, 44, -92, 34, -22, -108, -54, 99, -55, 59, 89, -61, 2, -37, -109, 42, -77, -58, -77, 68, -36, -19, 53, -4, -5, -94, 45, -114, 88, 44, -114, 108, 9, 27, 91, -112, -80, 111, -47, -30, -33, -33, 93, -56, -20, 101, -37, 55, 56, 28, 98, 95, 7, 
  -44, -78, 19, -94, 69, -30, 30, 27, -82, 81, -73, 102, -95, 54, -67, 102, 53, -82, 14, 15, -106, -83, 113, -106, 17, -31, -48, -9, 100, 14, 18, 52, 93, -107, 40, -11, 9, 5, 69, 19, -42, 55, 103, 72, 14, -13, 63, 91, -75, 85, -70, -115, 33, 106, 94, -64, -12, -77, 24, 43, -49, -15, -93, 62, -11, -94, -100, -11, 71, 29, -32, 14, 12, -79, -42, 28, 100, 111, 74, -45, 77, -52, -59, 3, 
  -28, -29, -111, -69, 112, -79, 70, 59, 107, -87, -105, -58, -93, -36, -93, 115, -43, -84, -84, 83, 79, -37, -33, 1, 46, -34, -10, 13, -91, 77, -23, -75, -23, -46, -55, -49, -14, 19, 81, -40, -82, 3, -113, -83, -7, -52, -26, 68, 95, -30, -46, 92, 115, -92, 52, 69, -6, -39, -117, 6, -112, -33, -63, -98, -5, 107, 8, -30, 82, 14, -109, 73, -105, 14, 115, 88, -30, -75, -66, 93, -79, -52, 19, -6, 
  -112, -57, -41, 114, 93, 16, -27, 59, 21, 84, -105, -34, 25, -115, 19, -53, 72, -109, -90, 82, -5, -87, 111, 61, 40, 45, 78, -66, -82, 52, -22, -10, -118, 78, 117, 115, 60, -10, -72, 31, -69, 111, -4, 41, 20, 12, -21, 5, 86, 117, -66, 42, -16, 24, 0, 56, -79, 106, 68, -9, -19, 26, 54, -31, 57, 76, 57, 91, 38, 90, 83, -49, 111, 80, -94, 55, -18, 27, 94, -107, -15, -95, 16, 12, 
  54, -56, 3, 70, 71, -61, -100, -77, -21, -79, 83, 87, -2, -40, 67, -62, -64, -57, 40, 14, 76, -77, -111, 49, 18, 2, 4, -56, -65, 17, -59, -27, -53, -67, 97, -43, -70, -30, 54, 52, -71, 97, 7, -61, 85, -90, -45, 17, -46, 69, -27, -49, 107, -79, -11, -19, -41, 42, -74, 56, -104, 117, 13, -94, -67, -87, 42, 87, -46, 23, -109, 72, 105, 101, -101, -62, -4, -102, 63, 65, 8, -111, -50, 54, 
  -86, -25, -73, -114, -19, -32, 54, -38, 53, -49, -61, 97, -118, 74, 23, 38, -75, -86, -36, -34, 70, 93, 24, 90, -70, -14, -69, -78, -94, 18, 120, -9, -52, 90, 39, -64, 19, -17, -100, 52, -68, -106, 119, -112, -28, 107, 0, -21, -90, 68, 5, 92, -36, 12, -13, -20, 37, -30, 102, -90, -114, 68, 25, -12, 58, 10, 99, -88, -5, -88, 121, -21, 108, 45, -86, -107, -87, 34, 118, -90, -91, 15, 107, -76, 
  -21, -2, 22, -49, 23, -69, 83, 74, -65, 91, 90, 33, -88, 23, 35, -60, -14, -71, -3, -58, -62, 111, -97, -112, 92, 47, 7, 113, -105, -107, -20, 94, 74, 114, 43, 116, -102, -38, 0, -51, -12, -3, -63, 99, -41, -79, -100, -29, 46, -12, 95, 33, -104, 82, -97, -58, 113, -111, -109, 66, 100, -94, 35, -58, -43, -83, -93, -42, 100, 5, 117, -82, -35, -36, -41, 58, 89, -110, 114, 4, 44, 76, -56, 19, 
  -65, 21, -5, 78, -28, 98, -55, -46, 41, 21, -93, 53, -118, -8, 55, 45, -100, 54, 28, -55, 34, -26, -82, 31, -104, -111, -106, 53, 28, -85, 43, 41, 62, -114, -95, -35, -56, -2, 13, -42, -81, -2, 89, -103, -22, 8, 88, 53, -73, 104, 88, 6, 93, -87, 104, 16, 79, 118, 4, 114, 113, -100, -52, 116, -5, -4, -97, 45, 102, 80, -78, -58, -52, -69, 108, 72, 114, 74, 3, 67, -93, -43, 76, 7, 
  80, 31, 35, 24, 111, 75, -1, 24, -89, 118, -2, -46, -93, 107, 67, -88, 92, 56, 99, -69, -31, 33, 29, 0, -43, -72, 108, -73, 9, -109, 40, 56, 26, -48, 46, 64, 89, 91, -90, 28, 20, -33, 69, 113, 92, 111, -44, -21, -90, -98, -5, -107, 4, -62, 20, -80, 101, 105, -15, 47, 4, 66, -9, -102, 33, 89, 90, -1, 0, 76, -95, -70, 5, 42, -69, 109, -89, 47, -104, 100, -40, -55, 78, 2, 
  -56, -74, -32, -4, 44, 102, 82, 91, -74, 53, -37, -23, 46, -40, 52, -58, 64, 89, 10, 30, 72, -75, 25, 80, -50, -25, 112, 84, -50, 43, -73, 55, -83, -78, 44, -107, 25, -46, 4, 39, 35, -89, -23, -47, 78, -109, 18, 55, 7, 85, -43, -92, -6, 5, 10, 61, 35, 103, -79, 52, 93, 3, -20, -45, 70, 112, 53, -91, -17, -90, -117, -6, -14, -115, -116, -6, -18, -11, 42, -113, -32, 60, 28, -102, 
  38, 17, 81, -28, -41, -103, -90, -106, -7, 77, -11, -30, -24, -86, -9, 83, 104, 69, 55, 30, 105, 64, 85, -89, -13, 22, -16, -24, 2, -13, -31, 106, 100, -34, 70, 34, -81, 91, -55, 79, 31, -99, 85, 101, 91, 5, 19, -106, -74, -113, 52, 110, -28, 16, -54, -15, 109, 65, -61, -8, 17, -80, 50, -22, 13, -8, 112, 103, -56, -73, 40, -68, 32, -60, -73, 49, -7, -46, 55, -51, -5, 8, 32, -47, 
  20, 62, -4, -79, 23, 42, 12, -27, -87, -20, 73, 55, 59, 115, -90, 32, -97, 102, 15, -18, -83, 78, 7, -26, -104, -77, -101, 77, -116, 111, -20, -18, 12, 7, -20, -61, 74, -87, -46, 6, 11, 54, -56, -34, -23, -16, -61, 43, 21, 16, -21, -6, -99, -60, -48, 53, 86, -93, -42, -21, 26, -107, -67, 13, 2, 120, 45, -110, -95, 112, 80, 47, -75, -83, -48, -4, -6, 58, 111, 65, -22, 21, 84, 106, 
  -100, -69, 67, 100, -18, -50, 30, -85, -6, 9, 41, 37, 116, 26, 64, -83, 114, -115, -57, -114, 118, -11, 34, 99, -91, 78, 117, 57, -26, -57, -102, -53, -45, 35, -35, 118, 72, 7, 75, -36, 57, 114, -3, -81, -115, 15, 90, 96, -11, -27, 28, 117, -83, -15, 29, 86, 5, -96, 29, 30, -9, -66, -95, 15, -117, 86, -78, -118, -76, -48, 77, 53, -5, 10, -95, -47, 84, -29, -56, -80, -116, 98, 96, -90, 
  102, -63, -97, -103, 59, 105, 56, -6, 54, -95, -101, 24, -76, -76, -27, -51, -96, -25, -56, -102, -39, 3, 31, -12, -108, 72, 45, 117, 98, 96, 67, 21, -61, -14, 76, 113, 96, -70, 86, 29, 29, -22, 0, 43, -102, 37, 1, -90, 82, 107, -104, 73, -106, -64, 97, -114, 46, 37, -93, -49, 30, 109, 112, -111, 34, -28, 62, 5, 27, 95, 29, 63, 3, 109, 94, -2, -95, -113, 12, -15, 5, 90, 106, -3, 
  55, -9, 71, 74, -68, 81, 23, -77, -13, 5, 102, -40, 63, 39, 90, -38, -114, -117, -108, 47, 80, -45, 102, 68, -100, -86, -15, -73, -8, -105, 60, -79, 80, 12, 77, 118, -86, -48, 114, 44, 36, 7, -95, 74, 41, 101, 44, -103, -33, 27, -22, 115, 53, -24, -83, -42, -116, 115, -85, -15, 73, 4, -82, 35, -50, -42, -116, 30, -82, -118, 11, -106, -79, -31, -78, 62, 114, -102, 62, -1, 26, -94, 16, 67, 
  -19, 82, -49, -82, -25, -2, 57, 25, 21, 90, -31, 107, 107, -66, -30, -45, 87, 22, 86, 5, 53, 4, 78, -4, 10, 89, -55, 14, -84, -81, -15, 46, -40, -54, -88, -60, 15, 10, 65, -101, 108, -65, -51, -91, 32, 73, 91, 48, 4, 49, -59, -73, 67, -85, 113, 51, 66, 25, -94, -38, -56, -20, -99, 47, 33, -74, 53, -97, -12, -6, 10, -67, 59, 28, 29, 15, -79, 102, 105, -40, -31, 70, -25, 114, 
  26, 4, -52, 62, 74, 68, 78, -23, -102, -107, -88, 38, 70, -105, 90, -78, -38, -117, 64, -45, 76, -111, 88, -67, -88, -100, -49, -42, 23, 75, -13, -49, -61, 63, -49, -113, -13, -80, 30, 40, -65, -46, -81, -96, 47, 64, -22, 111, 2, 77, -37, -1, -40, 88, -49, -104, 11, -11, -112, -59, -1, -61, -46, 66, 20, -20, 97, 113, 90, -63, -42, 77, -2, -7, 78, -63, -116, 20, -112, -25, -31, 114, -3, 1, 
  0, -46, 7, 94, 57, 61, -89, -91, 117, -29, 5, 116, 29, 68, -14, -54, -61, 44, -61, -97, -7, -3, 64, 63, 44, 8, 45, 29, 111, 44, 80, 60, -69, -85, -85, 29, -107, 104, -30, -74, 6, 82, -30, 70, 13, 46, -23, 75, 103, -17, 69, 4, -6, 60, -91, -56, -100, 54, 14, -100, -92, -6, -17, 27, 42, 79, 80, -54, 50, -59, 12, 113, 98, -74, -18, -66, 43, -88, -79, 66, 81, -14, 14, -11, 
  31, 27, 11, -116, 13, -112, 1, -44, -70, 33, 91, 45, -34, -21, 12, 64, -68, -63, 29, -43, 111, -48, 101, -103, 84, -64, -43, 88, -45, 17, 31, 104, -88, -47, -68, 112, -71, -85, 68, 3, 60, 12, 106, 61, 45, -20, 106, -78, 116, 42, -17, -68, 39, 111, -50, 101, 115, -80, -46, -7, -11, 87, -40, 112, 9, 93, 72, -66, -117, -15, 1, -72, -41, -84, 112, 19, 44, -99, 88, 60, 65, -31, -71, 64, 
  37, -38, 112, 20, -1, -24, 52, 65, 31, 57, 10, 112, -15, -53, 90, 7, -72, 7, -80, -29, -43, -101, 7, -53, -62, 67, -71, 93, 67, -121, -122, 7, -44, -98, -46, 73, -114, -3, 77, -118, -19, 30, -97, 87, -114, -93, 44, 40, 10, 62, 27, 33, -115, -9, 80, 114, 11, 101, 33, -67, 82, 101, 69, -92, -111, 72, 42, 14, 56, -18, -44, 46, -59, 16, 63, 24, -20, 88, -26, -66, 73, -91, -73, -46, 
  3, -105, 68, 82, -109, 15, -74, 87, 53, 111, -64, -17, -9, 68, 118, 81, 98, -38, 106, -123, -81, -83, -6, 72, 23, 52, -120, 53, -48, -109, 56, -72, -87, -59, -101, 97, -66, 107, 16, 57, -97, 106, -69, -80, -94, 98, 66, -72, -60, 108, 107, 38, 72, 99, -93, -57, -41, 103, -11, 85, 96, -7, -58, -79, -116, -24, 85, -82, -101, 0, -108, 21, 55, 69, -21, 37, 53, 15, 107, -21, -90, -111, -42, 66, 
  -46, -26, -10, 81, -75, -52, -54, -57, -56, -112, -26, -100, 67, -77, -45, -18, 78, 54, 114, 103, 62, -26, -50, -97, 28, -107, 86, 6, 116, 93, 0, 38, -46, 22, 97, 89, -43, 112, 42, 65, -71, -36, 1, -3, -19, 45, 22, -115, -42, 0, -21, 14, -53, -98, 20, 17, -94, -49, -74, 0, 61, 75, 101, 30, 28, -79, 76, 115, -33, -60, -73, 62, -64, 3, 60, -99, 115, -63, 92, 5, 8, 27, 76, -88, 
  -94, -24, -121, 95, -57, 71, -68, -103, -51, -75, -105, 88, 76, 99, -99, 50, 44, 34, 33, 85, 46, 94, 31, 54, -106, 71, -53, 91, -9, 60, -16, 42, 26, -93, -120, -62, -46, -117, -14, 57, 58, 14, 97, -54, -36, 50, 41, -44, 116, -82, 52, 77, -110, 86, -62, -32, 82, 109, 87, 8, 42, -93, 43, -53, 68, -36, 97, 98, 61, 93, -26, -12, -53, 80, 13, -117, -64, -106, 85, 20, -66, 49, -13, -6, 
  71, -48, -78, -70, 75, 8, 61, 5, -103, -111, -33, 32, -15, 40, 4, -18, -15, 27, 22, -19, -10, 90, 72, 61, -35, -83, -12, 39, 93, 5, -76, 39, 78, -57, -36, 89, 17, -19, -67, 118, -105, -108, 37, -3, -62, -25, 13, -50, 30, -58, -46, 62, -99, 78, 66, 89, -71, -51, 39, 84, 8, -71, -52, 9, 27, -15, -21, 20, -59, 112, 79, -29, 24, 92, 82, -86, 100, 98, -97, -70, 47, 13, -56, 38, 
  -102, 41, 96, -88, 69, 84, 27, -119, -26, -70, 102, 105, 42, 17, -60, -38, 35, 102, -93, -118, -111, 32, -6, -106, -103, -82, 33, 111, -70, -63, 57, 24, -72, 13, -19, 74, -16, 84, -55, 49, 58, 9, 16, 104, -68, 6, 41, -99, 14, 39, -11, -83, 58, 106, 10, 87, 73, -24, -14, 49, 87, -2, -83, -41, -23, -20, -91, 45, -5, 13, 53, 56, -82, 83, 23, 30, -54, -36, -61, -92, 8, 17, 94, -108, 
  114, 54, -79, 36, -52, -117, 14, 113, -66, -102, -43, 72, -115, 68, 27, 27, 117, 100, 114, -91, -20, -17, -43, 86, 99, 41, 51, -91, 39, 99, 83, -30, 2, -41, -32, 48, -118, 62, -101, -37, 100, -42, 100, 112, 61, 3, 72, 50, -91, 71, -70, 103, 12, -70, -29, -44, 27, -3, -93, -15, -53, 72, -29, 32, 11, 62, -80, -33, 39, -101, -103, 102, 4, -20, -112, 114, -63, -21, 101, -45, -75, 20, 84, 115, 
  8, -88, -4, 104, 60, 47, 106, 74, 18, -73, 71, 40, -53, -43, 91, 8, 33, -113, 57, 44, -92, 116, 14, 67, 93, -88, -44, -77, -114, -40, 84, -63, 4, 4, 40, 72, -97, -46, -103, -20, 90, -62, -75, -27, 17, 61, 0, -34, -16, -82, 11, -29, -33, -91, 3, 49, 97, -62, -119, -85, 97, -76, -25, -73, 96, -45, 50, -38, -89, 17, 99, -97, -86, 75, 22, 0, -77, -54, 76, -25, 43, 63, 97, -73, 
  91, -23, 14, 60, 15, 99, -31, 107, -92, 96, -38, 39, -27, -23, 75, -17, 113, 72, 11, -27, 90, -99, 63, 33, -12, -99, 114, 67, 66, -91, 80, -13, 9, -95, 86, -35, -43, -41, 58, -88, -73, 91, -5, 120, -60, -5, 22, -34, 78, 53, -61, -89, 5, 19, 23, 10, -108, -57, 29, 34, 20, -88, 115, 85, 42, -105, -58, 19, -90, -22, 88, 47, 73, 49, -59, 10, 17, -92, -8, -93, -4, -90, 45, 4, 
  15, 104, 54, 5, -78, -118, -92, -84, 22, 45, 98, 36, -43, -105, -50, -19, 74, 111, -60, 22, -15, 17, -31, 83, -74, -44, -63, 106, 85, -49, -93, 15, -75, 111, 77, 81, -82, 16, -3, 108, 117, 100, 107, 80, 59, -56, -34, 34, 87, -107, 33, 47, -9, -66, 75, 49, 51, -2, -30, 91, -100, -21, -88, 72, -112, -22, 11, -68, -54, -42, -112, -80, -113, 101, 108, -48, 42, 73, 6, -26, -68, 18, 68, -11, 
  56, 72, 52, -10, -84, -86, 105, -105, 101, 93, -20, 12, -103, -19, -33, 19, 76, 23, -87, -46, -118, 111, 98, 109, -22, 17, 8, -21, 7, 0, 117, -90, 93, 74, -4, 56, 89, 88, -96, 74, -77, -104, -96, -86, -106, -64, -114, -22, -28, -98, 115, -51, 99, -25, 7, -55, 18, 82, -116, -111, 32, 57, 65, -79, 113, -94, 57, -19, -56, 95, 79, 31, 20, 50, 101, -82, -93, 105, 87, 12, -101, 38, -38, -58, 
  -32, 71, -104, 60, -1, -105, -36, -82, -74, 59, -51, 98, -80, 103, -119, -53, 35, 92, 13, -26, 8, 109, -112, 104, -54, 62, -46, -65, 39, -123, 101, 19, -4, -71, 33, -16, -88, -110, 118, 94, 95, -114, -31, -63, 20, 58, -107, 111, -5, 109, 91, -101, 87, -92, 28, -21, 99, -79, 25, 22, 21, 31, 61, -17, 106, 23, 5, -23, 56, -91, -71, -85, -101, 74, 97, -33, -21, 118, 13, -110, 23, -86, -86, -2, 
  -7, -3, -46, -34, 12, 8, -8, 10, -35, 93, -46, -7, -11, 114, -20, -20, 86, -7, 33, 22, -43, -37, 22, -14, 112, -42, 58, 73, 60, -105, 29, 83, 107, -30, -2, -52, 87, -107, -53, -86, 105, 46, 38, -14, 1, -31, -11, 87, 67, -90, -57, 11, 7, -95, -41, 10, 67, -79, -78, -11, 9, 80, 61, -1, 45, -82, -85, -89, 110, 75, 65, -73, 26, 91, 91, 104, 70, 121, -94, 98, -94, 89, 53, 86, 
  104, -61, -91, 64, -104, -12, -61, -63, -83, 54, 115, 3, 19, 92, -31, -64, -116, 109, 15, -54, -71, 86, 48, 118, 24, -45, -19, 36, -73, -7, 92, -56, -16, 64, 84, 118, -85, -21, -51, 104, 94, -26, -93, 118, 25, -19, 118, -21, 24, 76, -3, -104, -68, -75, 71, -114, -61, -6, 31, 93, 5, -31, -82, -3, -48, 40, 40, -102, 89, 116, -100, -75, 98, 7, 108, 114, -60, -28, 79, 9, -63, -91, -50, -96, 
  70, -53, 111, -63, 72, -84, -109, 24, -105, 117, -45, 8, -96, 1, -112, -70, 36, -18, -1, 82, -102, 101, -73, 62, 62, 62, 16, -20, -7, 72, 45, -36, -17, 86, 73, 10, 83, 67, -57, -14, -50, -102, -103, -45, -18, 50, 92, -63, 31, 65, 78, 84, 57, -79, -93, 116, 86, 113, 54, 32, 45, 69, 56, -85, 64, -98, -8, -83, 61, 75, 49, -110, 3, 34, -100, 64, -49, -9, -17, -98, -46, -83, -95, -66, 
  24, 80, -103, -77, 62, 16, 112, -103, 79, 47, -28, 32, 26, -58, -71, 73, -1, -83, 35, -107, 109, 40, -3, 29, 20, -27, 37, 86, 23, 27, -26, 70, -116, 112, 99, -65, 62, -33, -44, -95, -15, 66, 12, 53, 56, 9, 19, -112, -2, 28, 98, -104, 46, -47, 49, 70, -3, 18, -101, 18, 118, 79, 36, 52, 77, 89, 66, 80, -114, -66, -6, 15, 96, 28, -56, -108, 57, -41, -65, 89, -99, 31, 43, 110, 
  13, 54, 77, 82, 73, -92, 112, 7, -98, -71, -64, -34, -38, -41, -93, 55, 55, -102, 27, -44, 56, -23, -56, 99, -46, 39, -41, 97, -27, 126, -14, 78, -39, -36, -39, -47, 58, 104, 5, 114, -84, 104, 45, -10, 68, 40, 40, -28, -17, 45, 66, 32, -26, -91, 59, 7, 104, 36, -31, 95, -96, 42, -80, 109, -55, 75, -87, 53, -15, -105, -105, 43, 42, 0, 15, 19, -29, 35, -63, 25, 65, 60, 21, 43, 
  109, -17, -117, 66, 29, -27, -114, 57, -66, -77, -9, 66, 56, 110, 48, 7, 2, 46, 72, 103, 59, 66, -109, 25, -29, -9, -20, -25, 87, -5, 62, 5, 18, 45, -31, 99, 103, -14, 116, -21, -101, -114, 115, -96, -117, 113, -56, -3, -33, -2, -89, 109, -2, -47, -50, 9, -23, 20, 8, 67, -105, -62, 70, -46, -81, 84, 88, 87, -50, -34, 23, 13, 51, 42, 9, -41, -76, 41, 65, 7, -75, -114, 23, -64, 
  23, -16, 16, 98, -68, 109, 65, 70, 116, 79, 51, -79, -97, -96, -94, 95, 98, 90, -54, 19, 11, -111, 78, 1, -44, -21, -47, 95, -52, 20, -123, -4, -112, -90, 11, 92, -16, -17, -73, -34, -70, 109, -3, -55, -28, -84, -56, 0, -23, -115, -113, 83, 32, 39, -41, -30, -50, -112, 18, 94, 100, 2, -18, -4, 118, -64, 59, 2, -114, -110, 35, 100, 88, -95, 29, -6, -104, -61, -55, 97, -32, -54, -111, 46, 
  34, -109, -108, -105, 0, 43, 102, 55, 20, 23, 38, -75, 60, 36, 18, 53, 19, -90, 5, 91, 103, 107, -30, -71, -5, -57, 106, -37, -113, 7, -34, 110, -115, 111, -108, 43, -77, 45, -23, -68, -91, 10, -75, 7, -14, -70, 81, -20, 5, 25, 106, -74, 110, 64, 22, 50, -103, -48, -51, -36, -110, -13, -6, -11, 89, -61, -94, 95, 87, -79, -67, 21, -43, -57, -4, -13, 91, 68, -97, 14, -74, 62, 28, 53, 
  105, 80, 8, 89, -99, -113, 15, -66, -17, -41, 47, 5, -4, -65, 86, 66, 37, 14, 5, 90, 94, 67, -27, -117, -90, 76, -72, -46, -90, 61, -26, -42, -22, 96, 37, -50, 24, -43, 74, -5, 106, 97, 38, 37, -74, 56, -79, 95, 23, -103, -86, 77, 22, 32, -24, 88, -33, -34, 45, -20, -8, -112, 52, -73, -36, -87, -9, -66, -113, -109, 23, -96, -26, -76, 13, 11, -99, 112, -79, 100, 57, -111, 12, 54, 
  41, 83, 68, -35, -92, -84, -97, 116, -11, 42, -63, -113, -45, 15, 11, 109, -64, -37, 74, -12, 111, -11, -72, -75, -82, -22, -109, 77, 77, 56, -21, 11, 18, -32, 26, -20, -57, -87, -89, -11, 118, 103, 12, -60, -109, 2, -76, -28, -75, 110, -105, 57, 45, -2, 72, -59, 34, -123, -57, -115, -17, -89, -33, 4, -32, 72, 47, -96, 35, -5, -97, -57, -32, -118, 65, -4, -19, -47, 64, 114, -3, -75, 90, 108, 
  35, 97, 65, -104, 16, -15, -85, 23, -87, 49, -22, -110, -85, 118, -51, 77, -25, -3, -9, 53, 56, 70, 87, 24, -107, 110, 75, 44, 114, -27, 34, -76, 18, -4, -59, 71, -12, -101, -64, 115, -5, 107, -30, 78, 101, 71, 9, 15, -40, -40, 111, -93, 26, -35, 32, -6, -43, 23, -78, 32, -99, -104, 43, 6, 110, -3, 19, 68, 71, 74, 91, 54, 21, 14, -78, 117, -10, -20, -8, -101, 96, -46, -78, -31, 
  108, 111, -111, -14, 92, -69, -65, 68, 10, 72, 2, 64, 109, 76, 68, -53, -96, -108, 40, -44, 105, 13, -21, 14, 70, 37, -27, 67, -92, 2, 55, 47, -96, 47, 118, -116, 118, 72, 95, 81, 20, -12, 32, 51, -52, 68, -31, -48, -79, 42, -81, 96, -96, -43, -114, -38, -20, 71, -1, 32, -44, 47, -112, -56, 43, 101, -15, -87, -13, 61, -94, -47, 43, 22, 53, 14, -54, 76, -111, -2, -90, -35, -53, 112, 
  56, 24, -102, -85, 84, -120, 64, -41, 43, -47, 41, -42, 95, 92, -32, -85, 40, 84, 75, 19, -46, -75, -99, -59, 113, -97, 49, 13, -3, 44, 11, 71, -53, 52, 91, -21, 45, -42, 1, -45, 49, 57, -111, 6, 66, 24, -48, 74, 27, 64, 50, 90, -48, -75, 34, 71, -53, 29, 21, 73, -106, 98, -50, 42, 24, -75, -33, -50, -120, 45, -58, 77, 111, 66, 17, -5, -79, 73, -104, -97, -105, 110, 29, -107, 
  -5, 79, 107, 90, 22, 50, 32, 99, 56, -82, -116, -32, -70, 98, 9, -37, -71, -39, 1, 115, -5, 19, 108, 68, 57, -58, -83, -20, 98, 25, 29, 98, -52, 74, -111, -1, -77, 14, 66, 22, 7, 89, -85, 14, 10, 75, -15, 74, -13, 30, -57, 21, 83, -115, 59, -49, -58, -24, -67, -100, -68, 75, -61, 77, 7, -70, -84, -59, 107, -53, -16, -37, 97, -30, -86, 7, 45, -113, -93, -112, -8, 31, 74, 46, 
  -38, 31, 86, -45, -41, -62, -41, 39, -43, -37, -89, -27, 31, -29, 14, 71, -86, 19, 84, 104, -5, -60, -91, 15, -107, -39, 116, 26, 73, 89, -111, -18, 10, -29, 20, 31, -20, 111, 66, -49, -34, 9, -6, 116, 64, -95, 98, -58, 31, 35, -107, 44, 83, -54, 6, 4, 85, 7, -4, 14, -20, -32, -117, 64, 52, -106, 15, 22, -109, 83, 99, 14, 103, -27, -39, -4, -119, 93, 106, 83, -46, -97, 93, 83, 
  112, 10, 84, 42, -17, 59, -10, -94, 13, 42, 36, -43, -105, -3, 16, 39, 24, 13, 84, 101, -32, 38, -67, 27, -68, -108, -24, -29, -1, 61, 112, 0, 78, -57, -20, -110, 119, 70, -24, 67, -113, -14, 106, 58, -94, -90, -103, 106, -61, 87, -26, -70, 63, 80, -13, 116, 63, 117, 94, 90, -97, 16, 69, 1, -21, -107, 4, 6, -51, -43, -27, -77, 61, -8, 75, 64, 75, -79, -5, -99, 118, -105, 43, -97, 
  -41, 88, -66, -100, -100, -92, 84, 4, 21, 40, 30, 70, -8, -64, -32, 111, -116, -108, 67, 67, -88, 4, -32, -108, 13, 0, -71, -113, -90, -16, 39, 87, -66, 37, 1, 35, -35, -46, 109, 90, -68, -15, 105, 38, -91, -113, -44, 64, 113, -27, -8, 117, -44, 29, 46, 56, -64, 58, -70, 93, -51, 18, -37, 63, 85, -73, 1, 24, -45, -105, 7, -78, 78, 27, -34, 97, -91, -82, 81, -3, -112, 45, -72, -22, 
  -29, 95, 111, -96, -11, 102, -46, 5, -37, -14, 73, -37, -98, 76, -68, -111, -89, 82, 12, -84, 48, -9, 4, 118, -104, 7, 48, -48, -116, -114, 24, -94, -65, 29, 106, -30, -71, 98, 60, 113, 33, -22, 110, -2, 0, -43, 23, -35, 56, -32, 35, -16, 93, -84, -11, -103, -82, 9, 37, -45, 80, 10, 60, -33, 8, -100, -107, 86, 45, 31, -36, 48, -98, -115, 118, -66, -84, -105, 65, -78, -10, -90, 0, 62, 
  -41, -35, -36, -29, 15, -105, -62, 20, -15, 36, 14, -23, 116, 89, -98, 26, 82, -67, -4, 98, -78, -25, 22, -47, -48, -70, -96, -58, -118, -40, -57, 53, -84, 25, 30, -81, 62, -43, 50, 81, 98, 67, 77, -28, -20, 94, -86, 113, 37, 88, -50, 25, -30, -40, -71, 14, 37, 59, -12, 80, 44, 74, -96, 58, 103, 68, 49, -34, 42, -37, 87, -32, -29, -20, -115, -108, -86, -23, -3, -49, 29, 70, -91, -70, 
  102, 90, 98, -88, 97, -34, 49, -72, 46, -21, -5, -23, 29, -100, -35, 72, -114, -34, 96, -74, 20, 47, 32, 62, -65, 74, -99, 107, -54, -80, 7, -85, 48, 28, 23, 58, 48, 117, 3, 109, 77, 86, 73, 59, -12, 92, 71, 102, -46, -3, -56, 11, 19, -112, 12, -86, -49, -76, -6, -17, 113, -7, -80, 105, 108, 13, 1, 7, -30, 110, -45, -8, 71, 45, -35, -29, -76, 81, 90, 99, 65, -76, -109, -96, 
  -1, -112, 44, -109, -23, 114, 102, 46, -31, 56, 74, -102, -73, 33, -96, -25, 43, -58, -109, 99, 71, 23, -11, -62, -32, 32, -61, -15, 96, -51, -43, 11, 106, -13, -72, -108, -44, 46, -72, 116, 78, 116, 21, -74, 61, -18, -75, 26, -97, 8, -84, -68, -34, 58, -107, 46, 71, 33, -24, 68, 113, 73, -51, 16, -105, 21, -108, -58, 12, -11, 35, 118, 49, 95, 57, 45, 36, -110, -20, -82, 68, -14, 81, 51, 
  -48, 29, 40, -33, 115, 24, 62, -22, -43, -9, 112, -96, 108, 108, 66, -1, 52, 109, 45, 91, -59, 105, -34, -120, -84, -48, 88, 34, 19, -28, -14, 103, -11, -50, -15, -93, 52, -108, 78, 18, 1, -110, 19, 54, 33, 50, -1, 79, -25, 86, 115, -46, 113, 106, 14, 16, -109, -5, 96, 74, -92, -3, 111, -17, -1, -21, -79, 114, -3, -22, 44, 118, -50, 86, -19, -2, -70, 50, -75, -32, -23, 87, 115, -55, 
  44, -50, -17, -18, 30, 67, -50, -66, -89, 94, -32, -31, 70, -80, 4, 75, 89, 22, -45, -14, 40, -16, 75, -54, 88, -6, 101, 113, -54, 67, 1, -6, -4, -46, 60, 47, 81, -17, 49, -84, -89, 6, -15, 86, 106, 1, -29, 13, 0, -91, -85, -66, -64, -87, -94, -100, -44, -20, 106, -49, -30, 25, 51, 36, 24, 23, -113, 31, -38, 5, -80, 18, -106, 39, -86, 92, 22, 59, 31, -87, 33, -58, 14, -112, 
  -4, 72, 46, -77, 2, -69, 74, -93, 65, -112, 71, -24, 78, 57, 72, 9, -19, 29, -113, 106, -25, 106, -56, 93, 96, 11, -55, -8, -13, 60, -23, -29, -8, 108, -2, -102, -73, -38, 1, 55, -71, 54, -48, 47, 95, -56, 27, 102, -11, -42, 97, -44, 36, 42, -30, 35, 37, -24, -63, 10, 113, 5, 76, -26, 48, -43, 100, -10, 64, -17, -100, 49, -107, -27, 17, -29, 72, -38, 11, -15, 91, 31, -81, 27, 
  -99, -98, -39, -33, -90, 100, 46, 99, -1, -10, 78, -35, 83, -89, -102, 30, -39, -92, 25, -16, 9, 6, -94, -100, -47, 37, 88, -59, -50, -16, -5, 7, -50, -32, -5, 57, 57, 6, 100, 71, -80, -26, -30, -74, 12, 118, 72, -114, 32, 80, 9, 50, 100, 38, 85, -43, 22, -35, -31, 78, -60, 114, 30, -94, -68, -109, 88, 115, -54, 80, -49, -19, 90, -38, 21, 79, -118, -65, -98, -65, -80, -65, 100, -29, 
  72, -58, 115, 30, -49, -113, -47, -8, -87, -22, -29, 53, -15, 12, 90, 101, -28, -63, -27, -19, 112, -30, -95, -92, -81, -63, -67, 69, -119, -66, -36, 9, 38, -49, 6, 24, 84, 98, -9, -48, -4, 95, 10, 8, -47, -81, 2, -87, -42, 12, -71, 115, -55, -31, -25, -61, -35, 51, 96, -91, 95, -3, 45, -41, -9, 116, -59, 111, 81, -115, -16, -72, -60, 54, 65, -10, 121, 104, -64, -71, 25, 81, -103, 102, 
  -114, -97, -2, 37, 51, 86, -50, -8, 108, -23, 61, 33, 61, -60, 92, -111, -66, 79, 82, -56, 17, -56, 73, 28, 40, -35, 59, 63, -20, -31, -17, -44, 66, -1, 5, -83, 9, -103, -36, 72, 29, -103, 117, 37, -51, -118, 82, 0, -50, -19, 8, -8, 84, -93, 35, 6, -27, -100, -98, -45, -8, -44, -108, 80, -109, 100, 90, -64, -44, -12, -9, 69, 21, 103, 20, 57, 84, 45, -98, 22, -58, -117, -21, -107, 
  -83, 34, -92, -101, 101, 56, -21, -1, 76, 106, -84, -25, -50, 19, -71, -42, -81, 44, -63, -17, 18, 110, -91, 37, -47, 30, 59, 84, 66, -66, -93, -71, 106, -95, 113, -116, -34, -82, 36, -21, -56, -30, -16, 79, 17, -24, -98, -10, 47, 41, 60, -83, 54, -52, 105, 102, -112, 105, 97, -115, 113, -32, 63, -79, 100, 55, 37, -116, -64, -66, 69, 63, 13, -3, -33, -26, -89, -74, -87, 88, -98, 54, -107, -23, 
  -90, -75, -21, -11, 41, -46, 76, -58, 54, 12, 63, -82, 8, 84, 15, -46, -30, -9, -109, -92, 72, -91, -34, -33, -64, 17, 87, -22, -75, 61, 37, -106, 43, 93, 45, 26, 39, -114, 29, 72, -111, 59, 19, -68, -109, 10, -30, 37, 46, 36, 108, 3, 50, 58, -15, 107, 83, -2, -57, -54, -53, 71, -83, -29, -10, -13, -71, 97, -80, 105, -96, -38, 50, -37, -8, -44, -87, 47, -87, 1, 86, 18, -10, 67, 
  24, 58, 15, -73, -51, -108, -110, -58, -104, -23, 98, 30, -11, 31, -60, 114, 102, -28, 108, 17, 0, 41, -47, -38, 36, 59, 113, 43, -22, -68, -110, 29, -119, -47, 14, -69, 87, 35, -2, 114, -5, -108, -19, 72, -32, 68, -64, -72, -58, 86, 87, -26, -17, 49, -99, -16, -78, -14, 99, 78, -110, 89, 121, -72, 58, -97, -107, 107, 52, -50, 83, -80, -81, -14, -53, 14, -111, -50, -97, -10, -37, 91, 66, -73, 
  33, -110, 41, -47, 93, -103, 40, 105, 96, -15, 76, -32, 52, -45, -41, 77, -94, -43, 100, -36, -65, -88, -45, 2, 81, -109, -65, -114, 80, 82, 120, 109, 84, -5, 4, 53, 99, 95, -72, 44, -78, -2, 61, -62, -35, 28, 78, -18, 43, 49, 106, 71, 119, -51, -83, -57, -48, 106, 58, -43, 0, 67, 50, 22, -109, 47, 13, 83, 37, 75, 53, 79, 68, 83, 80, -81, 24, -12, -99, 92, 28, 80, 90, 73, 
  17, 69, -83, -46, 46, -111, 14, 96, 40, 97, 113, -15, 118, 4, -88, 93, -6, -25, 109, 89, 64, 17, 106, 71, 24, -20, -84, -77, 46, 36, 48, -26, -106, -67, -23, 5, -37, 14, -115, -27, -107, 115, 69, 117, -89, -49, -16, 28, -13, 70, -67, 7, 80, -85, 98, 53, 91, -96, -63, 110, -7, -118, 1, 43, -74, 96, 96, -111, 33, -118, -48, -44, 32, 55, 110, 99, -47, -20, 103, 49, -59, 25, 51, -61, 
  -38, 22, 22, 51, 2, 45, -71, 24, 47, -7, 37, 85, -27, 19, 41, 110, 98, 55, -51, 30, -101, 58, 57, -71, -91, 79, 39, -58, 53, -7, 11, -38, -30, -111, 79, -74, 44, 39, -3, 93, 68, -42, 33, -53, -81, -52, 27, 117, 65, -37, 50, 64, -98, 102, -24, -111, -114, -30, -32, 69, -90, -11, 27, -15, -88, 21, 118, -83, 82, 64, -74, 102, 27, -116, 30, -113, 106, 100, -94, -80, 116, 57, 59, 44, 
  -14, 104, -114, 106, 104, 18, 9, 10, -24, 22, -83, -69, 2, -104, 60, -27, -37, -43, 43, -56, -85, -87, 23, 80, 85, -16, 30, 119, -72, -87, 45, 96, 37, -13, 73, -12, -81, 26, -39, 7, 15, -62, -62, -115, -89, -118, 16, 51, -37, -48, 68, -86, -40, 2, 110, -72, 73, -82, 95, 68, 9, -17, 9, -64, -83, 110, 51, -40, 26, -110, 100, -75, -102, 18, -96, -109, -27, -10, -45, -10, 76, 122, 95, 97, 
  38, -41, -102, 111, 12, -48, 3, 78, 40, -37, 55, 35, 6, 80, -64, -5, 76, -19, 107, -84, 54, -70, 24, 19, 58, -79, 112, -7, -14, -4, -36, 85, 14, -53, 70, -105, 93, -2, 117, 10, 20, 30, -22, -100, -32, 64, -84, -72, 50, -71, 7, 68, 3, 80, -47, -14, -102, 22, -18, -94, -103, 33, -67, 41, 12, 13, 97, -39, 82, -57, -99, -12, 30, 15, -20, -102, -52, 31, -92, 22, -18, 36, 59, 76, 
  30, -33, 8, -67, -47, -80, -9, -89, 8, 114, 34, -102, -4, 66, -112, 96, -109, -113, 114, 96, -61, 95, -92, 9, 73, 93, 118, -71, 111, -74, -14, 41, -8, -82, 36, -77, -91, -57, 105, 3, -70, -22, 115, 88, -90, -72, -7, -8, -89, 78, -39, 94, 25, 71, 3, -56, -48, 47, -72, -90, -74, -11, -64, 89, 108, -31, -43, 53, 24, -23, 67, 47, -88, 87, 23, 70, 87, -81, -5, -98, 105, -49, -54, -60, 
  31, -1, -58, 35, -17, -112, -40, -71, 34, -114, 99, 98, -29, 76, 92, -62, 41, -73, 28, -2, 28, 84, -73, -43, 30, 111, 38, 49, 2, 10, -20, -19, 15, -20, -85, 103, -108, 6, 6, 62, 62, -65, -11, -10, 34, -46, -117, 24, 110, 68, -64, 18, -40, -46, -58, -31, 71, 106, 45, -42, 0, 17, -16, -14, -44, -63, -52, 102, 74, -103, 38, 72, -6, 22, 67, 17, 62, 117, 7, 11, 71, -12, -25, 63, 
  58, -95, 5, -108, -35, 92, 34, 51, -53, 54, -35, 19, 23, -43, -12, 87, -13, -78, -31, -97, 99, -84, 67, 97, 112, -27, -73, 82, -102, -25, 60, -16, 59, -50, -9, -48, -45, -30, 1, 76, 48, 49, 45, 50, -16, -98, -96, -34, 27, -70, 57, 101, 52, -16, -58, 108, -98, 116, 36, -113, 58, -18, -47, 17, -5, -11, 108, -38, 118, -44, -81, -3, 113, 63, -84, -52, 31, 41, 76, -49, 24, -19, 16, 69, 
  57, -9, -75, 9, 43, 87, -92, 78, -77, -27, 55, 99, -107, 72, -39, 69, -40, 114, 26, 98, 112, 99, 36, -68, -15, -40, -92, -107, -3, 11, -105, 98, 10, -34, 82, -10, -10, 78, 47, -7, -48, 17, 103, -66, -78, -2, 43, -109, 54, 11, 8, -113, -102, 51, 99, 108, -14, -90, -82, -113, 62, -77, 79, -91, 34, 70, 95, -16, 101, 23, 92, 28, -2, 57, -87, -55, -106, 73, 73, -48, -89, 57, -57, 26, 
  -71, 86, -103, -73, -104, 96, 98, -117, -94, -5, -11, 44, 44, 118, 9, 42, 38, 79, -113, -36, 86, 105, -48, -48, 45, -84, 76, 20, 21, 35, 28, 98, 115, 8, 58, -45, -65, -67, -97, 94, 99, -117, -35, -2, -22, -19, 16, -50, -117, 104, 43, -42, 8, 35, 0, 23, -100, 64, -62, -117, -69, -50, -115, -97, 10, -13, 43, 68, -93, -30, 64, -4, -95, -24, 68, 54, 117, 56, -99, 80, -89, 99, 68, -114, 
  -11, -26, -54, -4, -14, -47, -17, -27, 63, 60, 114, 104, -30, 46, -86, -83, 96, -66, 109, -97, -21, -70, -35, 84, 35, -9, -78, -97, 52, 105, -51, -87, -1, 106, 55, -6, -22, -65, -48, -3, -120, -16, -42, -28, 68, 103, 35, -2, 80, -106, 75, -63, -13, 2, -15, -16, 34, -59, 92, 58, 6, 97, 29, 86, -49, -88, -88, 93, -112, -8, -73, -86, -25, 115, -84, 85, -7, 38, -30, -88, -35, -7, -75, -90, 
  20, 95, -4, 74, -23, 87, -18, 10, 6, 18, 102, 64, 73, 70, 16, -98, -36, 96, -97, -80, -64, -17, 1, 90, 119, 6, 50, -30, 83, 51, 68, -29, -56, 37, 67, 117, -74, 26, 48, 6, -10, 74, -85, 27, -97, 60, 69, 58, 98, -61, -11, -79, -115, 71, -1, -92, 5, 22, 20, 78, 49, -53, -56, -15, 7, 59, 62, 20, -62, -60, -8, 19, 90, -40, -92, 63, 90, 53, -89, -94, 59, 44, -97, -6, 
  -3, -68, -109, -4, 36, 39, 55, 97, -20, 67, -85, 2, 59, -6, -67, 68, 85, -51, 13, 32, 47, -81, 36, 113, -39, -82, 116, 104, 19, -83, 58, -64, -9, 0, 69, 101, 67, 22, -45, 60, 92, 95, 45, 62, -56, -10, 52, 22, -89, 17, 110, -96, -45, 3, 118, 88, 20, 15, -16, -79, 3, -20, -18, 60, 16, 8, 63, 113, 80, -101, -21, -6, -1, -32, -4, -72, 71, -110, -99, 114, -102, -97, 1, 29, 
  1, 81, -77, 89, 75, 88, -61, -7, -21, 117, 69, 15, -91, -75, 101, -114, -111, 83, -31, -52, 98, -62, 95, 96, 101, 52, 37, 78, -40, -77, -111, -30, -84, 74, 111, 108, 83, 5, -117, -49, 63, 15, -7, -81, -66, 64, -5, -74, 52, -26, -58, -95, -55, 51, -42, -57, 75, -110, -35, -81, 99, -38, -71, 50, -64, 66, -58, -89, -11, 70, -115, 103, -54, -8, -88, 0, -93, 8, -112, 63, 117, -80, -4, -35, 
  -90, -9, -43, 1, 44, -64, -106, -110, 53, -91, -32, 68, 64, 58, 17, -48, -105, 95, -81, 70, 0, -11, 54, -101, -4, 50, 2, -105, 18, -16, -57, 25, 64, -6, 113, 4, 36, 16, 52, 110, -72, -39, 93, 116, -58, -118, -30, -38, 64, 27, -108, -100, -68, -85, 36, 59, -41, 103, 81, 16, -18, -96, 45, 112, 27, 35, 51, -89, 49, 93, 70, -108, -111, 47, 26, -52, -10, 111, -74, -29, 72, 41, -72, 44, 
  98, 93, 31, -91, 75, 59, -116, 70, 112, 24, 76, -13, 37, -82, -40, 99, 57, 49, 83, -103, -42, -115, -64, 28, -67, 12, -100, -110, -104, -49, -12, 116, 77, 47, 43, -51, 77, -40, -47, 43, 68, 15, 51, 80, -51, 49, -37, -43, -62, -52, 53, -55, 85, 29, 119, 30, 79, -3, -107, 114, -66, 22, -86, 51, -79, -13, -48, 79, 70, 48, 96, 76, -12, -30, -50, -71, 80, 10, -30, 30, -60, 54, -116, 73, 
  -31, -19, 87, 74, 8, 52, -105, -113, 61, 8, -12, 64, 102, 24, -21, -26, 109, -37, 65, -21, 2, -67, -63, -65, 26, -95, -109, 87, 37, 8, 32, 96, 96, -15, 68, -40, 98, 50, 42, -5, 74, -99, -109, 63, -60, 116, 105, 90, 91, 68, -72, -25, 48, -114, 12, -83, -72, -87, 102, -111, -50, 86, 55, -1, -83, -99, -71, 4, 56, 40, -54, 95, 11, -75, 18, -97, -55, -88, -6, -61, -65, 59, 49, -72, 
  16, -15, -105, -15, -40, -39, 25, -104, -20, -108, -40, 119, -111, -58, -38, -62, -109, -94, 82, 70, 10, -2, 43, -64, -51, -49, -58, -51, -19, 89, 112, -41, -35, -16, 50, 97, -4, -113, -99, 87, -52, -49, -104, -49, 3, 56, 9, 88, 97, -75, 2, -47, -23, -55, 76, 117, 85, 102, -12, 94, 36, 120, -74, -3, 33, 35, -56, 99, 75, -78, 27, -60, -92, -23, 9, -35, 50, 30, 26, 7, -23, -32, 42, 95, 
  -49, 105, -10, -55, 63, -3, -3, 104, -6, 93, -78, 21, 78, -78, -24, 78, 11, -98, -6, -32, -88, 63, -14, -83, 44, -4, 74, -85, -52, 71, -109, 71, 25, 110, 48, -83, 48, 111, 20, 59, -21, -109, -77, -14, 96, -24, 44, 65, 15, -66, -72, -51, -23, 72, 113, 87, 97, -14, 49, 6, -65, 75, 73, -55, -86, 34, 120, 79, -57, -33, -13, -11, 56, 56, -97, 44, -72, 65, -90, -25, -46, 78, 36, -33, 
  38, -5, 18, 8, 63, -47, -50, 75, 115, -59, -104, 31, 40, -111, 75, -115, 30, 34, -115, -96, -91, 105, -102, 47, -65, 63, 78, 111, 43, 80, 57, 80, 76, -6, 110, 16, 116, -59, -19, -47, 67, 8, 7, 79, 96, 3, -72, 55, 39, -92, 42, -72, 38, -105, -16, 104, -69, 65, 90, -120, -97, 108, 104, -96, -73, -70, 28, -109, -88, -35, 58, -42, -16, 67, 77, 9, 22, -83, -72, 71, -83, 112, 8, -100, 
  -27, 79, 96, -1, -113, 62, 95, 16, 95, 99, 84, -59, 103, 33, 51, -23, 38, 42, -90, -48, -11, 91, 81, -115, -103, 82, -48, 79, 72, -108, -104, -13, 23, 106, 109, -12, -69, -65, 21, -19, 86, 89, -19, 18, -90, 97, -76, -91, 92, -84, 105, 50, 8, 98, 28, 30, -118, -111, 56, 28, -45, 69, -84, 2, -104, 116, -66, 34, -41, -112, 92, -44, -105, 14, -112, 101, -14, 2, 98, 54, -115, -109, 52, -81, 
  -110, -116, 117, 69, -109, 99, 61, 34, -12, 67, -71, 105, -115, -112, 10, -68, 82, 100, -28, -41, -104, 29, 82, 6, -76, 82, -77, -4, -99, -92, -50, 2, -35, 113, -29, 60, -85, 91, 84, -26, -43, -57, 44, -42, -82, 40, -24, -77, 51, -66, 90, -31, 81, -94, -89, 61, 49, 93, -113, 35, 19, 8, 101, 105, 106, -69, 27, 100, -86, 72, 51, -78, -106, 111, 87, 87, -103, -20, 100, -106, -101, -112, 91, 113, 
  -22, 18, 102, 37, 69, -80, 71, 44, -4, -20, -78, 99, -54, -118, 71, 117, -109, -73, 69, 11, -103, -86, 56, 100, -94, -88, 71, -118, -46, -40, -48, -8, -85, -32, 92, -87, -87, 47, -96, 11, -67, 19, 43, 15, -12, -37, 52, 70, -56, 67, -32, 12, 105, -49, -83, -104, 39, 90, -47, -49, 76, -4, 30, 117, 105, -23, -57, 14, 25, -44, 72, 15, 92, 11, -82, 101, 72, -81, 33, -41, 22, 2, 21, -55, 
  -44, -60, -15, 109, -104, -52, 113, 96, -57, -69, 114, -32, -109, 80, 115, -12, -64, 101, -70, 58, -72, -69, -114, 49, 31, -40, 104, -74, 113, -43, -49, 53, -64, 25, -42, -20, -5, -98, -73, -8, 95, -117, 118, 54, 17, -85, -93, 61, 38, 84, -118, -110, 12, -12, -89, -7, 69, -96, -32, 26, -42, 34, -19, -33, -103, -54, 48, 64, 37, 62, -56, 26, 44, -75, 106, -41, -101, 37, -84, -115, 43, 24, -77, 61, 
  -4, 22, 46, 91, 85, -18, 58, -13, 58, -35, 79, 110, 23, 75, 61, 107, -74, -21, 2, -59, -14, 46, -106, -8, 76, 18, -9, 104, -28, 24, 49, -95, -97, 86, -36, 67, 111, 76, 86, 54, -105, -88, -70, 105, 97, 43, 92, -47, 40, 96, 87, -48, 88, -43, 93, -76, 90, -80, 45, -106, 4, -72, 55, -47, -29, -76, 79, -16, 72, 35, 115, -48, 62, 79, 12, 46, -53, 5, 41, -18, -94, 51, -6, -72, 
  82, -36, -96, 18, -17, -58, -68, -48, 70, 86, 100, 45, 72, -86, 58, -38, -99, 4, -38, -68, -12, 45, 69, -4, 103, -24, -77, 95, 73, 67, 33, 83, 118, -18, 64, -93, -88, 103, 75, 14, -65, 119, 100, 28, -2, 35, -107, 51, 38, -111, 42, 52, 117, -27, 99, -72, 108, 66, 112, -26, -58, -83, -28, -20, 69, 111, -42, 21, -80, -69, 60, 103, -99, -19, -92, -109, -75, 4, -27, 24, -20, 41, -67, 82, 
  -51, -12, 60, -28, 5, -93, 61, 49, 22, -28, -83, -49, 91, 106, -65, -11, 40, -60, 93, -98, 100, -83, -38, 4, -74, -50, 26, -100, -93, -94, -23, 39, -24, -82, -4, 78, 19, -96, -69, -62, 50, 38, 62, -115, -62, -70, -45, -6, 76, 23, -92, -27, -58, 31, -36, 8, 46, 127, -3, 65, -88, 78, 66, -65, -44, 38, -53, 11, 65, 115, -1, 99, -117, 24, 18, 68, 75, 48, -3, -57, 9, -33, 90, -1, 
  -27, 78, 102, 26, 42, -89, -110, 113, -51, 54, -54, 8, 55, -65, 32, -113, -95, 68, -116, 49, -11, -52, -8, -46, -57, -15, -9, 65, -83, 49, -123, -29, 65, 17, 22, 118, -66, 8, 58, 55, 64, -98, -94, -9, -24, -101, 21, 17, -96, 81, 55, -62, -55, -1, 12, -3, -23, -2, -43, 33, 28, -9, 19, -109, 18, 15, 26, 22, -114, -73, -58, 78, 3, 11, 3, 1, 115, 29, -52, 11, -66, -78, 68, 80, 
  75, -67, -6, 85, -107, -22, -86, -85, -9, -84, 47, -94, 79, -99, 98, -110, 30, -75, 57, -46, -47, 91, 89, 21, 10, -2, -15, -37, 107, 3, -4, -40, 59, 21, -107, -40, 19, 97, -43, -25, 111, 0, -48, 13, -111, 56, 29, -39, 56, -32, 109, -11, -65, -33, 51, 79, 113, -111, 22, -96, -40, -43, -55, -109, 20, 42, -66, 36, -16, 43, -55, 71, -9, 90, 70, -29, 35, 26, 46, -114, 36, 86, -17, 6, 
  -58, 59, -61, 87, 19, -20, 28, -88, 50, 74, -31, 28, 83, 103, -95, 96, -109, 52, -84, 96, -75, 79, 70, -101, 106, -8, 78, 31, 34, -70, -110, -35, -62, -34, -27, 43, 101, 33, -37, -72, -78, -95, -100, 65, 88, -74, -47, -117, 83, 81, 96, -89, -102, -82, 93, 15, -32, 109, 6, 100, 114, -76, -45, 30, -80, 19, -12, 17, -85, 52, 0, 87, 63, -9, 10, 29, -114, -18, 39, -31, -111, 103, -63, 16, 
  -57, -107, 44, 95, 1, -88, -67, -104, 51, 109, -107, 102, -36, 44, 86, 107, 80, -44, 3, -92, 107, 81, -35, 7, 3, 16, 105, -69, -15, -84, -120, 84, -81, 78, -20, 31, -50, -1, 100, 70, 94, -84, -11, -90, -46, 15, -62, 56, -45, 2, -115, 72, 112, -103, 107, -53, 104, -63, 16, -20, 66, 71, -107, -70, 41, -22, 38, 54, -97, -107, 18, -20, -35, -17, 97, 13, 62, 96, 102, -65, -13, 98, -33, 97, 
  83, -114, -87, -109, -87, 79, 70, -82, 8, -69, 73, 109, 14, 99, -104, 68, 65, 52, 50, 45, 77, 30, 6, -118, 37, -26, 8, -29, -2, -54, -41, -1, 102, 98, 31, 100, -8, -89, -29, 48, -82, -89, -86, 81, 112, 75, 118, 114, 22, -7, 103, -54, -37, 0, -99, 77, -72, 21, 92, -74, -26, 25, 40, 84, 23, 89, 116, -101, -30, 51, 58, -30, 5, -34, 15, -61, -104, -8, -82, -6, -41, 83, -87, 46, 
  -77, 25, -8, 87, 88, -63, -47, -11, 105, 98, 12, 77, -61, 110, 87, 72, -72, 29, -68, 49, 5, -22, -112, -15, -71, 37, 95, 58, -103, -13, -81, -89, -16, -70, 26, 87, 35, -110, -2, -118, -55, -100, 20, 30, -62, -17, -51, 33, -43, -44, -35, -53, -116, -62, 16, 114, 39, -47, -60, 13, -36, 67, -119, 69, -60, 73, -40, -102, -11, -81, 78, 37, 45, 76, 64, 62, -117, 21, 107, -43, 94, 54, -11, 106, 
  -101, 28, -43, 51, -81, -67, -34, 62, 99, -64, -44, 111, -47, 72, -39, -17, -21, -20, -78, -8, 3, 59, 0, 58, -29, -44, 66, 109, -47, 93, 93, 10, -13, 54, -66, -21, -50, 96, 45, -45, 60, -15, -101, -114, -101, -78, 24, 92, 23, 118, -63, 60, -95, 110, -50, -93, -96, -7, 64, 4, -67, -70, -17, 86, -10, -79, -67, 90, -26, -50, 1, 74, -49, 101, -12, -110, -33, 82, -52, 60, 68, -37, 26, -43, 
  -95, -53, 95, 89, 30, -9, 43, 67, -6, -17, -40, 14, 69, -11, 109, -22, -108, 45, -73, 32, 0, -56, -11, 59, 101, -41, -88, 31, -23, -46, 68, -22, 4, -34, 56, -42, -58, 67, -2, 44, 102, 37, 77, 47, 109, -1, 90, -63, 97, -27, -8, 35, -81, 25, 111, -14, 68, -17, -97, 93, 112, 51, 96, -115, 88, -100, -53, 25, 119, 119, 99, 101, -7, 22, -86, -64, -40, 1, 17, -51, -8, 81, -82, 39, 
  -95, -107, 56, 78, 12, -31, 83, 72, -83, 81, 53, -17, -55, 5, -17, -29, 73, -29, -40, 106, 47, -41, 72, 114, -107, -36, -22, 100, 16, -104, -52, -78, 50, 100, 12, 89, -32, -67, 68, 39, 86, 82, -100, -34, 23, 51, -111, -76, 8, -21, 68, -67, -14, 0, 28, 83, 73, 30, 101, -39, -53, -72, -99, -32, 49, -55, 96, 69, -47, -105, -59, -8, -91, -11, -16, -91, -65, 73, -55, 26, -100, 31, -72, -83, 
  -76, 75, 80, 20, 16, -41, -112, -28, -5, -5, -42, -106, -59, 61, -93, 95, -66, -96, -88, -45, -30, 35, -11, -66, 40, 99, 117, -7, 69, -35, 97, -73, 114, -77, -89, -32, -1, 107, -74, 68, -93, -89, -117, -64, -6, 106, -25, 105, 74, 63, -22, -11, -74, 44, 82, -16, -116, -84, -62, -114, 47, 29, 86, 12, 93, 95, 14, 22, -20, -16, 28, 78, 26, -94, 37, -81, 40, 48, -63, -94, 114, 92, -65, -20, 
  13, -33, 72, -120, -71, 4, -97, -45, 10, -62, 97, -100, 44, 72, -14, -75, 100, -46, 88, -4, -83, -27, -76, -10, 49, -76, 56, 104, 31, 19, -74, -56, -84, -105, 18, -111, -59, 5, 25, -94, -43, -14, -11, 94, 56, -74, 62, -72, 118, 85, 43, 2, 96, -36, 15, -30, -93, 6, 45, 26, 57, 46, 29, 17, 120, -43, -108, -40, -11, 0, -11, -98, 85, 23, 116, 12, -88, -103, -76, -60, 91, 52, -55, 84, 
  22, -105, 71, 69, 35, -15, 32, 79, -70, -93, -81, 57, 118, 3, -87, -35, -54, 35, 3, -70, 23, -58, 22, -84, -45, -105, -90, 41, -58, 12, -102, 107, -9, -54, 61, -82, 112, -88, 101, -30, 117, -118, -85, -8, -50, 113, 55, -87, -90, -41, -88, -63, 12, -4, 34, 28, -99, -110, -96, -43, 28, -59, 63, -62, 104, 74, -75, -114, -29, 91, 47, -51, 77, 38, -23, 116, -13, 0, -62, 65, 116, -56, -22, 72, 
  0, -65, 28, -62, 36, -60, -18, -88, 100, -102, -41, 46, 9, 114, 1, -97, 26, 85, 36, -69, -43, -11, 21, 30, 6, -27, 56, -46, 75, -109, -104, -86, 90, 24, -30, 102, 107, -47, -113, 82, -31, -43, -46, 82, -98, -76, -6, -18, -46, 23, 85, -61, 6, 96, 23, 2, -113, -74, -27, 93, 44, -59, -41, -23, 94, -56, -56, 39, 101, 51, 69, 41, 67, -116, -8, -9, 60, -8, -7, -78, 39, -71, -112, 21, 
  -57, -17, 13, 73, 109, -20, 115, 114, -115, 36, -72, 24, 100, 14, -99, -35, 104, -104, -81, -11, 41, 7, -47, -74, -67, 10, 42, 5, 73, -69, 101, -107, 58, -2, 29, 11, -68, -111, 13, 22, 79, -51, 81, 23, -41, -4, 6, -90, 77, 44, -33, 33, -59, 63, -58, -2, -119, 52, -35, 49, -48, 65, 100, -66, 44, -30, 118, 99, -74, -79, -65, 36, 17, -31, -113, -10, -105, -100, 80, -89, 88, 47, 22, -74, 
  94, -75, 65, -109, 51, -39, 63, 116, 107, 86, 77, 20, 7, -18, -90, -22, -94, 28, 103, 1, 92, 92, -95, 59, 25, -62, 93, -2, -65, -105, 116, 61, 52, -89, -67, 14, 26, -80, -98, -85, -101, -75, -24, 112, 21, -4, -28, 57, 38, 94, 111, 85, 33, 75, -103, -79, -56, -28, -4, 109, 44, -39, -25, 29, 96, -12, -9, -38, 47, -46, 52, -40, 24, -87, 63, 19, -18, -99, 49, -91, 80, -75, -71, -44, 
  45, -46, 39, 57, 45, 55, -1, 6, 84, -73, 77, -67, -100, 59, 44, 70, -8, -10, 63, -110, 76, 21, 52, 63, -24, -55, 46, -37, -61, 67, 99, 52, 66, -7, 84, 8, 84, -16, -48, -74, 47, -63, 83, 76, 84, -64, 83, 94, 70, 24, -26, -13, 81, -104, -87, 102, 106, -97, 13, 104, 25, -18, -28, 97, 118, -60, -72, -101, -14, 123, 101, -81, -102, 12, 73, 103, 39, -74, 10, -75, 33, -117, 38, 48, 
  59, -109, -107, 72, -50, -61, 110, -116, 85, 9, -62, -57, 46, 91, 97, -111, -90, 38, 51, 32, 4, 21, 71, -58, 111, 10, 23, -77, 57, 115, -2, -1, -26, 15, 52, 40, 94, -62, -51, -95, 9, 22, -111, 47, -1, 74, 34, 39, -73, -70, 51, 100, 78, -2, -109, 51, 25, -15, -106, 97, -102, 85, 6, -16, 89, 71, 110, -55, 3, -87, 73, 35, -81, 17, -72, 95, -59, -110, -66, -72, 64, 66, 83, 110, 
  19, -18, -75, -86, 94, -69, -65, 52, -31, 37, -19, 26, 89, -70, -78, 8, 81, -105, 111, -108, 31, -21, 76, -81, 52, 52, -78, -97, -37, 88, -85, 40, 102, 9, 63, 23, 105, -114, 31, -94, 98, 32, -59, -58, 111, -63, -30, -63, -13, 72, -20, 51, -69, 55, 49, -13, 107, -91, 113, -20, 47, 95, -117, 90, -93, -81, 113, -46, 32, -92, 108, 74, 72, 47, -83, 61, 25, 87, -71, 17, 0, 38, -47, -108, 
  92, -96, -23, -13, -93, 0, 34, 62, -78, 104, -26, 74, -95, 16, -1, -64, 47, -27, -105, -116, 71, 25, -60, -90, 6, -39, -111, 100, 73, 37, 57, 85, -102, 68, -58, -118, 58, -110, -46, 96, 61, -22, 46, 96, 36, 12, -104, 100, -102, 87, 88, 15, 110, -38, -76, -3, -113, 96, 34, 55, -84, -8, -33, 10, 89, -52, 56, 13, 72, -105, -7, -52, 65, 12, -39, 28, 49, 3, -100, -65, -50, -115, 89, -5, 
  -17, -33, -60, 55, -51, 31, -11, 115, -17, 107, 76, -58, -33, -74, -18, 79, 93, -10, 87, 29, 56, 100, -53, -59, -56, 28, 89, -14, 37, 83, 27, -104, -94, -71, -2, 77, 98, -67, -1, 48, 25, -25, -32, 43, -76, 22, -13, -3, 116, 104, -96, 12, -13, 15, -113, -101, 104, 73, 27, -65, 67, 57, 29, 40, -37, -31, 18, 32, -109, 34, -5, 34, 31, -113, 29, -6, 15, -50, -27, -26, -70, -111, 38, -6, 
  36, -72, -36, -8, -99, 3, 60, -80, 14, 121, -51, -29, 17, 16, -57, 2, 70, -45, 68, -76, -15, -77, -108, 74, -54, 80, 26, 44, -17, 13, 15, -111, 96, -101, 38, 51, 76, 10, -114, 22, 68, 56, 22, 90, -12, 106, 56, 18, -87, 33, -34, -42, -8, 53, -48, 99, -81, 65, -96, 42, -51, 44, 93, 43, 46, 91, -6, -107, -42, 39, -60, -89, -49, -82, -81, 6, 72, -30, 65, 60, -35, -83, 28, 113, 
  11, 6, -42, -30, 36, 92, 63, 109, 43, -69, -64, 63, -38, 19, 76, 47, -81, -108, 6, 113, -87, 23, 46, 19, -21, 117, 17, -65, 48, -12, 89, 112, -13, 111, -98, -45, -4, 80, -67, 51, 1, -102, 86, -49, -28, 43, -79, 98, -76, -93, 81, 40, -106, 30, -82, 55, -49, -16, -24, -117, 71, -82, -32, -32, 60, -77, 18, -91, 8, 24, 101, -63, 59, 106, -76, 73, 33, -34, -25, 37, 114, -33, -45, -68, 
  -16, -46, 12, -88, -42, 30, -35, -77, -72, 74, 10, -94, -3, 57, -15, -70, 1, -110, -58, -66, 35, 97, 48, 30, 95, -74, 81, -48, 67, 59, 54, 35, -30, -43, 0, -80, 69, -79, -38, 86, 57, 67, -38, -74, -55, -10, -54, -7, 6, -99, -81, 51, 33, -70, 60, -66, -72, -100, 13, -29, -97, 13, -64, 106, 98, -17, -46, -88, 18, -36, -49, -77, -113, 57, 13, -30, 53, 31, 29, -8, -11, -112, 29, -39, 
  -14, -24, 81, 88, 13, 77, 73, 107, 80, 103, -98, 102, 19, 116, -65, 95, -60, -61, 3, -41, 48, 16, 91, -20, -94, -52, -104, 70, 3, -82, -96, -41, -13, -32, 26, -9, -90, 110, -12, 77, -84, 28, -56, -26, -77, 6, 110, 40, 74, -77, -59, -35, -109, 27, 91, 72, -1, 36, -73, -47, -83, -38, 43, 0, 82, -89, 48, 71, 117, -51, -104, 19, -113, 8, -76, -85, 28, -104, 100, -34, 62, -9, -29, -105, 
  -67, -43, -18, 71, 100, -113, 62, -57, 91, 42, -63, -25, -9, 99, 73, 1, -36, 26, -74, -18, 109, 52, 58, 62, -77, 83, -59, 103, -94, -97, 55, -99, -116, -85, -80, 48, 91, 17, -28, 30, 77, -16, 43, 35, 89, 42, 107, 47, 38, -112, -109, -78, 105, -33, 101, -43, -28, -30, 117, -32, 2, -58, -86, 102, 100, -24, 48, -90, 53, -58, 41, -92, 59, -11, 10, 83, -82, -46, 60, 52, 84, 54, -102, -106, 
  -32, 47, 106, 102, 43, -8, 69, 93, 51, -98, -66, 21, -7, 47, 75, -27, -54, 100, 40, -118, 29, 109, 88, 16, -61, 16, -49, -84, -45, -59, -121, 89, 106, 16, -62, -58, -37, 24, 7, 98, -7, -103, -40, 108, -105, 17, 7, -83, -31, 91, 117, 27, 114, -35, 95, 93, -67, 23, 59, -14, -80, -58, 20, -106, 45, 96, -15, 14, -27, 34, -30, 26, -96, -32, 55, 26, -80, -83, -105, -67, -2, -18, -60, 31, 
  100, -50, 87, 89, -112, 14, -106, -23, 18, -24, -39, -97, 97, -32, -4, 16, 22, -117, -96, -87, -17, -88, 36, 22, -13, 76, 9, -63, -23, -18, -103, 71, 21, -80, -114, 50, 71, -57, -89, 26, 18, -108, -47, -8, 26, 103, -73, -56, -19, -112, 22, 93, -3, 6, -11, -30, 41, 30, 48, 112, 76, 68, 19, 5, -91, -15, 71, -100, -29, 40, 28, 89, 74, 111, -85, 12, 64, -30, -43, -79, -73, 114, 55, 24, 
  17, -106, -101, 57, -83, 10, 57, -96, -29, 99, 117, 15, 93, -79, 79, -97, -100, -110, 56, 49, 109, 79, 52, 98, -10, 12, -4, -33, -118, -45, 94, -42, -51, -14, 25, -102, 102, -23, -95, 29, 1, 103, 1, 95, 104, -49, -1, -54, 3, -107, -31, 105, 74, -3, 104, -50, -90, -24, 47, 55, -61, -8, -46, -67, -5, -21, 91, -36, 33, -60, -13, -118, 31, 6, -93, 113, -58, -44, 99, -68, -17, 65, 17, 7, 
  77, -33, 81, -12, -24, -64, -7, 83, 5, 21, 85, 52, -92, 116, 38, -57, -5, 102, 16, 33, 41, 101, -28, -53, 86, 117, -111, 35, -105, 42, 35, -108, 18, -107, -116, -25, -80, -13, 101, 11, 78, -17, 32, 110, -4, 11, 93, -42, -11, 29, 77, 32, 21, -60, -40, -93, -106, -2, 96, -73, 5, -62, -27, 89, 34, -48, -86, 89, 118, 48, -91, -1, -49, 31, -62, 34, -83, -64, 49, -13, -16, 82, -23, -106, 
  12, -103, 95, 72, 47, 111, -62, -1, 48, -80, -44, 16, -44, 67, -49, -88, 33, 62, 100, 53, -36, 66, -92, -56, 77, -42, 47, -48, 82, -105, 37, -103, -31, 103, -105, 62, -31, 51, 73, -41, 89, 46, -46, -40, 11, -101, -5, -119, 73, -52, 60, 6, -70, 81, -38, 40, -29, -115, 39, -71, -18, 8, 64, 49, -103, -114, -66, -77, 66, 59, 46, -56, 24, 85, 69, 8, 33, 53, 16, -104, 71, 110, -89, -96, 
  99, 70, 71, -4, -20, -67, 121, -1, -6, -86, 21, 86, -104, -93, 60, -60, 58, -5, 0, 27, 101, -100, -73, 35, -106, 32, 23, -90, -75, -39, -109, 21, -20, -62, -26, 122, -33, 38, -104, -108, 40, 5, 61, 81, 97, -1, -72, -39, 98, 93, 45, 97, -107, 110, 5, -104, 65, -102, 48, -72, 97, 16, 66, -51, 24, 93, -37, 66, 30, -43, 40, -8, -34, 111, 26, 89, 24, -106, 114, 122, -83, -14, -46, 60, 
  35, 111, 27, -51, -22, 26, -42, 120, 70, 79, -116, 77, 97, 49, 99, 76, 6, -25, 17, -97, -53, 57, -84, -19, -4, 54, -81, 84, -31, 104, -68, 43, 64, 44, -36, -16, -56, -41, -21, 114, 108, -80, -18, -64, -71, -113, -2, 20, 20, 58, 26, -116, -109, -113, -22, -44, 62, 53, -85, -95, 50, -108, -11, -42, 100, -96, -24, -110, -96, 9, 53, 49, -56, -91, 71, 58, -110, -50, -25, 3, 117, 120, 61, 49, 
  -99, -91, -110, -10, -68, -106, -92, 69, -93, 43, 33, 42, 45, 81, -66, -105, -75, -67, -58, 12, -69, -28, 89, -109, 117, -81, -21, -111, 76, -45, 24, 108, 59, -115, -99, -94, -85, -89, 42, 1, -34, 14, 38, 81, 79, -32, 91, -25, 97, 108, -78, -75, 7, 82, -74, 84, 26, 95, -92, -86, 46, 12, -79, 15, -85, 94, -92, -3, 16, -70, -37, -102, -53, 86, 73, -35, -81, 43, -22, -111, 53, 118, -98, -40, 
  66, -62, 49, -110, -62, 47, -14, -25, 53, 43, -110, 77, -111, -120, 76, 99, 90, 14, 98, -80, 102, 100, 62, -63, 75, -3, 0, 61, -37, -48, 75, -40, 16, 113, -93, -74, 49, -103, -70, -1, -77, 70, 38, 112, 112, 57, 49, 72, -41, 87, -67, 48, -52, -2, -106, -64, 78, -29, 20, 41, -56, -60, 5, -77, 70, -75, 8, -87, -73, 59, -91, -58, -99, -12, 111, 111, -80, -68, 43, -35, -105, 58, 24, -78, 
  -91, 118, 38, 110, -30, 113, 90, 118, 66, 101, -26, 72, 116, 55, -35, 107, -106, -41, 48, 116, -68, 32, 105, -42, -2, -42, -49, 4, 108, -116, -50, -36, -35, 99, -111, 88, 70, 66, -46, -10, -118, -84, 29, -22, 2, 33, 7, 34, 64, -56, 99, -115, 85, -29, 108, -48, -12, 85, 22, 112, 21, -79, -21, -46, -115, -15, -73, 66, 81, -22, 19, 5, -76, 20, -7, 89, 96, -13, 31, -49, -51, -31, 47, 22, 
  -91, -48, -46, 85, -86, 112, -22, 109, -63, -35, 10, -66, 82, -13, 96, 14, 8, -28, -96, 5, 106, 98, -66, -109, 56, -27, -83, -12, -50, 47, 61, 78, 58, 27, 70, -91, -66, -64, -35, -16, 49, -12, -98, -93, -69, 96, 46, 52, -11, -87, 99, -105, -95, 87, -79, -93, -20, 102, -84, -26, -106, -114, 64, 99, 45, -13, -27, 95, -91, 110, -54, -101, 10, 35, -88, -109, -103, 75, -122, -7, 38, 83, 52, 75, 
  -25, -19, 105, 98, -6, 26, -33, -109, 103, -94, 76, -7, 42, -53, 50, 8, 96, -23, -34, 10, -63, -103, 15, 20, -48, 73, 34, 113, -14, 84, 107, -15, 52, -21, 47, -54, 96, 90, -28, -73, 106, -6, 3, 58, 84, -59, 67, -112, 2, -61, -102, 7, -4, -33, -38, -106, -29, -56, 77, -40, -29, -22, -56, 97, 99, 66, -59, -56, -30, 52, -14, -101, 48, -56, 95, 21, 90, -84, -52, -106, 72, 108, 119, 12, 
  79, 108, 38, 53, -115, -60, -49, -20, 112, -3, 18, -20, -64, -76, -82, 43, 20, 93, -107, -32, 10, 110, 118, -40, -59, -92, 84, 29, -118, -17, 0, -44, -58, 34, -104, 66, -96, 16, 106, -92, -50, 30, -51, 11, -97, -108, 0, 82, -62, -2, -58, 115, -45, 34, 74, 55, 32, -34, 2, -102, -3, -32, -45, 114, 22, 25, 19, 92, 75, 6, 7, 17, 39, -13, -108, 87, 116, 90, 39, -115, -17, -48, 80, 16, 
  108, -109, 84, 81, 65, 117, 84, -6, -102, 9, 92, -112, 66, -63, -120, -105, -109, -40, -28, -73, 8, 26, 71, 7, 30, -31, -9, 97, 23, -61, 26, 53, -72, -66, -8, 7, -75, -61, -102, -83, 61, -63, -99, 40, -103, -83, 71, 83, -4, 27, -26, -73, 78, 101, -36, -5, -91, -85, -84, -1, 53, 44, -29, 0, 122, -71, -91, 21, -26, 27, -64, 61, -39, 31, -61, 118, 34, 85, 122, -5, -95, 12, 105, 78, 
  107, -21, -42, -54, -52, -10, 53, 14, -56, 55, 80, 94, -95, 15, 36, 116, 6, -59, -53, -31, 86, -67, -63, -82, 47, -72, 19, -28, -88, 18, -119, -59, -63, -72, -90, -45, -13, -32, 30, 29, -90, 36, 61, 98, -81, -45, 59, 28, -60, 85, 15, -105, 33, 20, 12, -105, -108, -31, 99, 15, 18, -87, 108, 51, 52, 48, 105, -94, -52, -42, -74, 8, -20, -50, 103, -28, 11, 55, 8, -58, 7, 94, -111, -4, 
  84, -5, 77, -25, 85, 46, -26, 51, 58, -43, 13, 62, -108, -55, 84, -11, 42, -16, 49, 2, 60, 110, -8, 35, -20, -77, -20, 38, 33, -30, -8, 15, -1, -64, 87, -27, 99, -34, -8, -24, 31, 122, 20, -25, 53, 31, -59, -93, -78, -15, 6, -29, 37, 53, -108, -95, 63, 66, -102, 14, -61, -36, -94, -3, 99, -28, -44, 119, -97, -39, -97, 53, 54, -27, -75, 8, 60, -11, -112, 60, 26, 66, 56, 49, 
  -40, 71, -48, 122, 16, -1, 58, 94, 20, 113, 33, 47, -7, -119, -54, 42, -100, -20, -3, -102, 29, 1, -92, -7, 82, -12, -27, -69, 12, 29, 48, -104, 63, 43, 49, -39, -41, -11, -30, -26, 110, -92, -105, -64, -45, 71, 90, 32, -86, -57, 12, 53, -50, -54, 29, -124, -60, 97, 119, 17, -24, -1, 91, 88, 7, 17, -93, -85, -76, 94, 72, -71, 116, 1, 99, -92, -102, -72, 65, 108, -30, 113, -75, -111, 
  94, -4, 37, 66, 30, -59, 84, 65, -40, 65, -20, 43, -56, -70, -52, -20, 51, -117, -87, -27, 73, -24, -79, -5, 7, 102, -39, -77, -41, 73, 30, 45, -67, 102, 27, 22, -9, 16, 4, 67, 118, 33, 14, 2, -56, 47, -93, 67, -18, -87, 21, -37, 95, 43, 46, -41, -99, -108, -8, 104, -13, -38, -31, 0, -10, -46, 101, 85, -75, -105, 50, 115, -19, -15, -107, 58, 48, -41, 98, 57, -65, -25, 14, 2, 
  32, 104, 40, 58, -35, -15, -72, -84, -56, -105, -13, 105, -31, 98, 35, 55, 100, -120, 1, 8, -95, -57, 112, 6, -40, -16, 66, 94, 84, 110, -23, -104, -87, 111, 75, 72, 117, -64, -115, -42, -48, -83, -105, 109, -12, -123, -81, -14, -66, -7, -81, -37, -15, -50, 74, 29, -59, 3, 62, 4, -31, -12, 58, 19, -64, 115, -41, 44, -21, -39, 36, -26, 115, 101, 59, -20, 66, 75, 91, 10, -64, 36, -74, -33, 
  8, 52, 96, -21, 7, -101, 78, -76, 76, -101, 62, 26, 38, 97, -119, -15, -39, -43, 112, 90, -113, 84, -72, 63, -37, -55, 116, -114, 48, 115, -82, 25, 26, 42, -75, -110, -64, 7, 99, -77, -87, -111, 63, -103, 19, -90, -53, -7, 34, 80, 43, 113, 47, -76, 71, 42, 112, 18, -100, 55, -49, -108, 27, 83, -101, -82, 42, 21, -108, 42, 29, -24, 25, 0, 108, -102, -71, 61, 7, 32, -77, -108, -15, 67, 
  -31, -64, 40, 58, -116, -92, -22, 97, 67, -45, -8, 117, 59, -105, -59, -51, 16, -23, -110, -95, 72, 116, -15, 32, 41, -97, 7, -22, 40, 78, -39, 49, -28, -39, 119, 88, -34, -5, -67, -10, 38, 44, -95, -87, 22, 12, 52, -44, 31, 38, 65, 62, -62, -76, -20, 102, -37, 66, -12, 111, 73, -42, 54, 51, -52, 11, 57, 14, -17, -27, -23, -15, 24, -68, -72, -71, 97, -27, 67, 84, -71, 25, 11, 40, 
  104, 32, -94, 21, -67, -44, -51, -87, 82, -79, -7, -103, 116, 107, -52, 3, 35, 45, -121, 2, -47, 105, 40, -70, -8, -20, -26, -112, -25, -60, 27, 95, 81, -39, 3, -53, 38, -81, 98, 83, 115, 62, 40, 6, -76, -82, -73, -54, 2, -107, -31, -28, 49, -63, 27, -36, -93, 4, 65, -48, -68, 72, 14, -12, -34, 33, -5, -5, 35, -71, -52, 105, 58, -19, -22, 70, 7, -65, 78, -79, -36, 64, -3, -55, 
  106, -53, -65, -82, 25, -21, 4, -93, -89, 100, 16, 51, 34, -89, 48, 89, -91, 60, 113, 5, -21, -15, 25, 89, -22, 77, 44, -116, -105, 101, 26, 93, 34, 69, 45, 55, -22, 11, 43, -39, 54, -88, 27, -61, 3, 90, -50, 106, -107, 52, 87, 100, 31, 115, 78, 105, -31, -115, 38, 96, 24, 9, -84, -2, 87, -26, 64, 35, 106, -10, -84, 88, 82, 10, -93, -3, 110, 96, 54, -110, -45, -23, -68, -85, 
  62, 66, 57, -37, -1, 62, 105, 77, 33, 59, -36, 32, 61, 87, -12, -112, -1, 6, -6, 68, 9, 87, 16, 50, -15, 108, 114, 39, -99, 110, 76, -92, -17, -12, -67, 23, -24, -29, 13, 117, -69, 10, 50, 65, 83, 43, 56, 38, -78, 10, -19, 102, 76, 77, 59, -63, -37, 43, 116, -114, -35, 84, 90, 50, 44, -44, -12, 45, -23, 110, -80, -33, -39, -29, 6, 80, -61, 73, 78, 103, 80, -116, -100, 38, 
  -39, -35, -113, -48, -33, -40, 4, -62, -80, 23, 16, 34, 114, 55, -7, 115, 30, 0, -8, -95, 62, 94, -47, -105, 35, -3, 53, -4, -49, -90, 57, -79, 38, 118, 62, 78, 81, 49, 3, -106, -67, -13, 75, 57, -118, -76, -72, 19, 55, -37, -35, -49, 110, 48, -86, -27, 18, -49, -61, 18, 108, -104, -33, 57, -59, 45, 92, -55, -18, -29, 40, -95, 63, 103, -117, -58, -10, 108, -56, 117, 106, -93, 24, -76, 
  0, 103, -39, -8, 55, 15, -6, 4, -96, 105, -96, 90, 66, -114, -115, 110, 54, 90, 43, -77, -116, 115, -28, -61, 38, -38, -74, -43, 81, 48, 36, -109, -57, -13, 32, -63, 31, -34, 119, 62, 57, -6, -1, 56, -34, 69, 6, -53, -84, -43, -36, -23, 2, -8, 13, -78, 62, -67, 21, 0, 57, 77, 109, 30, 30, 108, 20, -97, 56, -28, 36, 48, 18, 84, -71, 78, 53, -70, 118, 16, -93, -90, 15, 40, 
  38, -85, 34, -19, 85, 26, 38, 81, 20, -82, 114, 55, -99, -114, 49, 53, -23, 116, -110, 32, -103, -53, 18, -35, -52, -21, -93, 18, -9, -14, 57, -58, 64, 82, 12, 6, 35, 19, -31, -104, 117, -107, 51, -76, 65, -9, -83, 45, -115, 107, 4, 20, 60, -94, -44, -6, 44, -16, -118, -24, -48, -2, -62, 57, -102, 50, -26, -27, 13, 26, 86, 77, 28, 104, -13, -102, 86, -48, -58, 95, -93, -8, 117, 83, 
  -58, -66, -108, -2, -42, -58, 92, 66, 77, -5, -11, -58, -105, 118, 59, 38, -78, -17, -3, -18, -65, -11, 91, -24, 17, -75, 47, 52, -16, -80, 85, 63, 15, 78, 12, 36, 89, 72, 47, 111, -106, -104, 114, 114, -116, -41, 73, 6, -10, -26, -67, -23, -105, -16, -29, -3, -80, 44, -58, 54, -10, -26, 62, -112, -111, 107, 76, 112, -80, 109, -11, 86, -35, -73, -118, 3, 107, -101, 38, 101, -7, 12, -31, 20, 
  -99, 26, 76, 79, 19, -42, 65, 29, 31, 62, 34, -109, 50, -99, -89, 74, -107, -6, 113, 95, -16, 0, -82, -114, -22, -51, 115, 92, -118, 113, 90, -53, 88, -74, -68, -82, -18, -102, -102, -110, 90, -12, 59, 108, 84, 57, -11, -79, -97, 79, -8, 121, 68, 46, 117, -91, 59, 71, -87, 37, 58, 87, -29, 35, 119, -79, 13, 24, 93, 52, -75, 22, -100, -51, 56, 57, 45, 64, -7, -41, 6, -42, 81, 4, 
  75, -11, 16, -40, -15, 40, -62, 103, -119, 29, 90, 45, 14, 79, -16, 97, -111, -81, 24, -40, 0, -23, 91, 77, -67, 75, 29, 3, 27, -8, 119, 97, 4, -116, 103, -112, -42, -98, -56, -40, 8, -90, -106, -45, -98, 10, -98, 29, -74, -94, 23, -91, 26, 76, 88, -101, -16, 5, -88, 109, 26, -8, -59, -57, 117, 115, -115, 78, 5, -54, 35, 1, 74, -56, -52, -43, -13, -91, 66, -99, -3, -34, 56, 37, 
  -118, 27, -58, 111, -68, -81, -52, -112, -63, 82, 49, 20, -74, -1, -61, 32, -59, 108, 42, 19, -60, -92, -107, -89, 17, 118, 58, 52, -54, -107, -78, -40, -33, 81, -32, -81, -10, -93, -37, -50, -67, 66, -77, -5, -118, 113, 60, -8, 116, 56, 31, 106, 83, -77, 85, -92, 27, -96, 64, 117, -24, 60, 81, 96, -67, -87, 62, -101, 87, 60, 75, 95, 19, 25, -109, 74, 16, -101, 19, -39, -24, 25, 67, 1, 
  4, -38, -38, 13, 5, 48, 32, -14, 93, 35, 93, 83, -57, 24, 19, -97, -97, -3, 2, -10, -45, 46, 22, 87, 28, -15, -15, -112, -31, 34, 26, -87, -15, 86, -3, -8, -29, -112, -90, 24, 110, 68, -81, 71, 8, 80, -69, -38, 62, -47, 97, 29, -66, 107, -112, 113, 39, -54, -112, 6, -35, 77, 35, 41, 94, 66, 74, -71, 43, -52, -47, 60, -106, -29, -34, 64, -10, 110, 27, -34, 29, 75, 73, -70, 
  9, -89, 27, 62, 72, 36, 90, -85, 101, -99, 43, -3, 54, 98, 15, 99, 57, -8, 117, -56, 62, 40, 74, -41, 49, -85, -5, 105, 110, -48, 22, -98, -42, 106, -43, -95, -79, -84, 33, -62, 16, -40, -72, 16, 99, -42, -101, 12, -82, 33, 26, 98, 7, -6, 18, 12, 79, -16, -112, 104, -95, 114, 76, 91, -105, -45, -63, 49, -27, -77, -39, -44, -50, 71, -74, -26, 64, 7, 97, -80, 29, 103, -63, 4, 
  -21, -27, 26, -48, -57, -44, -99, -28, 112, -14, 57, -42, 96, -27, 84, -43, -13, 63, 87, -122, 91, 81, 36, -112, 22, -81, 50, 19, -50, 99, 83, 58, -109, -110, -93, 17, -67, 99, 101, -7, -63, -68, -16, -116, 108, -10, -10, -11, 98, -63, 97, -112, -52, 47, -114, 51, 54, 69, -98, 45, 22, 48, 56, 85, 90, -79, 65, 71, 91, -25, 10, -34, 118, 96, -51, 61, -11, 77, 32, -102, -77, 23, -101, 104, 
  -9, -64, 70, 20, -39, -99, 41, -65, -15, -4, 60, 114, -44, 45, 70, 65, 63, 28, 43, -17, -13, 72, 84, -21, -82, -8, -33, 114, 103, 61, 97, 109, 64, -76, 109, 24, -7, 86, -43, 92, 43, -117, -46, 8, 28, 84, -91, 35, -44, -96, -20, -44, -50, 87, -116, -45, -2, 106, -29, -32, -106, 76, 33, 52, -86, -45, -37, 89, 52, -93, 77, -11, 55, -108, -77, 81, -48, -25, 21, 45, 47, -26, -98, -49, 
  111, 99, -7, -65, -30, 109, -40, -1, -26, -68, -4, -66, -9, 46, -76, 106, 40, -44, -94, -43, -104, 2, -109, 67, 94, -116, -94, -3, -32, -26, -109, 117, 44, -104, -26, 116, 49, -40, 8, 97, -37, 41, 31, -68, 96, -16, -43, -52, 23, 22, -56, -23, -5, 111, 61, 14, -43, 92, 21, -22, 1, 35, 70, -105, 18, -1, -104, 101, 97, 60, -62, -57, 91, 78, -100, -73, -92, -11, 72, -20, 90, 8, -58, -21, 
  -99, -106, 27, -92, -30, -35, -66, 38, -45, -41, 79, -52, 115, -41, -47, 45, -17, 68, 113, 81, -93, 65, 102, -86, -108, 29, -43, -22, -8, -116, 47, 48, 95, 21, 115, 56, 37, -8, -77, 5, 115, 73, -2, 24, -89, 23, -114, 56, 68, 63, 33, -49, 34, -79, -67, 77, -66, -113, 87, 76, -60, -92, 43, 57, 58, 81, 104, -34, -33, 95, -32, 65, -85, -11, 5, -22, -50, 118, -60, -113, 4, -42, -8, 102, 
  -69, 27, -116, 72, -85, -48, 114, -107, -12, 110, 81, -117, -101, 56, -49, 58, -39, 82, -34, 57, -74, 9, 7, -20, -30, -45, 6, -67, -114, 2, -52, 102, 41, -76, 37, 31, -112, 34, 1, -29, 63, 117, 22, 9, -99, 1, 12, 77, 100, -86, 1, 100, 3, -111, 112, -40, -16, -44, 14, 69, -100, -63, 76, 117, 13, -55, 71, -50, -118, 114, -119, 69, -71, -114, -108, 6, 4, -26, -27, -15, 116, 107, -91, 19, 
  4, -20, -19, 38, -60, 28, -25, 93, 106, 94, -36, -51, -1, -104, 102, 37, -20, -65, -23, -117, 46, 67, -1, -45, -34, 61, 90, 30, 38, -22, 62, -55, -53, 88, 71, -54, 38, 71, -61, -31, 6, 118, 99, 7, -104, -104, 13, 50, -66, -60, -101, 29, -108, 32, 6, -101, -106, 64, 31, -32, -62, 112, 93, 23, -68, 57, 8, 12, 95, -25, 115, -60, -101, -70, -40, 81, 41, -107, -36, -116, -18, 115, -2, 45, 
  6, -40, -19, -16, -70, 61, -61, 26, -13, -109, 118, -30, -90, -23, 79, 101, 57, -116, 81, 69, 121, -61, 61, 8, 18, 1, -17, 33, 12, -86, 11, -84, -88, 52, -104, 83, -7, -112, -92, -32, 30, 68, 112, 51, 60, 19, -6, -77, -109, 51, 36, 52, 10, 120, 25, -62, 82, 82, 21, 61, 1, 12, -69, -53, 2, -104, 24, -93, 7, -22, 84, 90, 28, 7, -3, 48, 26, 27, 114, 108, 22, 50, -34, 56, 
  -100, 43, -42, 52, -103, 104, 61, -72, 61, -32, -77, -109, 80, 4, -5, -113, -92, -45, 53, -31, 5, -37, 15, 94, 93, 56, 118, -4, 116, -40, -109, 60, -22, 7, 53, 22, 29, -80, -39, 39, -21, 72, 79, -1, 83, -55, -115, -87, 32, 25, -12, 14, 94, -4, 74, 5, 11, -55, 46, 77, -115, -25, 49, -44, 5, 19, 44, 19, -71, -111, -88, 80, 117, 35, -50, -39, 92, -8, -10, 34, -52, 111, 31, -30, 
  -31, -90, 90, -1, -29, -97, 63, -104, -46, -71, -54, -24, 105, 15, -2, -46, -77, -60, 91, 85, -22, 28, -25, -30, -4, -46, 19, 111, 79, -27, -47, -6, -65, -110, -20, 98, 16, 90, 48, -76, -1, 75, -45, 10, 34, 81, 49, -90, -9, -83, 19, 7, -37, 42, 66, 20, -69, 73, -3, -119, -26, -87, -77, -92, -30, -86, 75, -81, -27, 0, -13, 2, -5, 48, -25, -49, 82, -4, -95, -71, 74, -104, 65, -8, 
  -58, 88, -62, 99, -39, 108, -80, 80, -42, 113, 70, 2, -72, 101, -49, 72, 61, -63, -60, 84, -37, 21, -99, -63, 34, -82, -43, -108, -20, -3, -84, -97, -94, 107, -70, 32, 70, -74, 93, 76, 4, -23, -42, -98, -116, -41, 63, 98, 92, -45, 88, 80, -63, 84, -31, -108, 13, -93, -113, -90, -64, 80, 114, 40, 80, -5, 89, -74, -8, 10, 90, -117, -11, -98, -42, 9, -79, 101, 103, -44, 45, 34, -60, 75, 
  -49, -102, 111, 90, 103, 6, -109, -95, -105, 52, 26, 75, -110, -65, -39, -35, -104, -79, 68, -29, 103, 82, 48, -30, -117, -45, -84, 99, 27, 1, 50, -106, -100, -46, 6, -84, 24, 57, -82, 85, -67, -15, -64, -78, 84, 67, -68, 3, -88, 63, 97, 39, -2, 60, 110, 36, -4, 26, -100, 8, -105, 67, -32, 109, 54, 12, -36, 60, -64, -7, -75, 78, -98, -61, -55, -48, -121, 30, 100, -17, 31, 36, -25, 40, 
  -29, 115, 29, -109, 18, 68, 28, -64, 40, 108, 72, -85, 108, 2, -67, 47, -53, -88, -35, 80, 82, 78, -79, -22, 24, 38, -14, 45, 79, -100, 57, -112, -51, 107, 95, -103, -19, -95, -115, -100, 14, -1, -33, -76, -29, 3, -90, 118, -41, 81, 27, -96, -70, -65, 80, -118, 25, -71, -91, -105, -114, 63, -103, 65, 47, 84, -51, -100, 0, 15, 25, 81, 43, -76, 15, 60, -26, 16, 114, 44, 104, -8, 106, -17, 
  -103, -102, -31, 17, 33, -83, 97, -53, -68, -51, 75, -78, 18, 35, -15, -20, -92, 27, -50, -109, -88, 20, -13, 49, -6, 90, -11, -3, -59, -7, 109, 0, 85, 39, -43, -24, -70, 90, -82, -87, -29, 59, -78, -118, 27, -79, -66, 89, -1, 113, 27, -16, 103, -93, -64, -9, 52, 87, -37, -28, -55, -21, 30, 62, 111, -80, -36, -53, 33, 44, -42, -117, -57, 91, 118, 41, -21, -112, -1, -7, 111, -57, -92, 80, 
  4, -68, -11, 48, -62, 44, -19, 118, -57, -70, 31, -11, -21, 94, -54, -10, -49, -63, 107, 57, 39, -79, 63, 99, 68, -99, -95, 27, -89, 27, -109, -28, 77, 97, 66, -40, -49, 19, 90, -91, -5, -9, 10, -90, 1, 34, -92, -71, -55, -40, 82, 89, 103, -69, 14, 5, -50, -18, 79, -101, -90, -47, 116, 101, 11, 49, 80, -13, 87, 34, 22, 58, -33, -83, -111, 91, -75, 8, -34, 67, 118, -55, 66, -92, 
  -74, 39, 105, 108, 109, -106, -41, 36, 12, 36, 29, -66, 76, -46, -66, -72, 78, 93, -100, -31, 98, 65, -22, -93, -95, -26, 73, 36, 94, -83, -97, 15, -26, 117, 83, -117, -47, 62, 13, 108, -23, 15, -69, -102, 54, -7, 20, -110, -95, -9, 100, -88, 75, -30, -18, 101, 55, 101, -115, -31, -50, -107, -107, -112, -98, -23, -108, 88, 51, -61, -112, -34, -1, 58, 33, -92, -77, 97, 32, 5, 27, 27, 87, -102, 
  -87, -52, 46, 12, 69, -66, -83, -76, 25, -46, 12, -76, -50, 56, 113, -33, 9, -47, 1, -109, 15, 18, 36, 1, -12, 94, -27, 78, 14, 123, -93, 15, -58, -97, -70, -16, -82, 98, -5, 61, 68, 104, 33, -78, -36, -20, -29, 1, 17, 27, 75, 20, 68, -10, 45, -42, 55, -67, -43, -118, 102, -84, 38, 47, -63, 107, 20, -52, 54, -18, 31, 62, -34, -102, 7, 84, -82, -109, 35, -43, -9, -37, 85, 9, 
  -66, -13, 90, 75, 70, 59, 103, -20, 89, 5, 48, 34, -93, -7, 11, -36, -102, -92, 5, -111, -87, 6, -106, -43, 12, 107, 53, -114, -97, -112, 49, 4, 50, -69, -85, -12, 104, 67, -90, -36, 72, 67, 51, 84, 81, -75, 30, -40, -52, 18, -91, -44, 87, -94, -22, 117, -27, -79, -113, -22, 54, 119, -7, 78, -42, 97, -77, -8, 115, -108, -112, 57, 23, -118, -113, 4, -105, 53, 13, 101, 120, 111, 89, -112, 
  108, -11, 78, 28, 39, 109, -83, -58, -98, 63, -58, 18, -108, 112, -85, 40, 61, 101, -51, -53, 14, -112, 116, -53, -105, -46, -68, -14, 22, 7, -43, -106, -72, 77, -77, -31, -91, -20, -30, -61, 82, -101, 90, -73, -1, -80, 0, 65, -72, 49, 92, -77, -61, -38, 58, 89, 88, -94, 108, 86, 35, 73, -60, -26, 103, -33, 99, 101, 29, -23, -17, -59, -5, 14, -12, 57, 96, -111, 20, 57, -98, 48, 88, -53, 
  -40, -77, 64, -87, 113, 4, -82, 96, 24, -29, 36, -78, 6, -86, -113, -78, -20, 75, -76, -4, 65, 73, 18, 88, -50, 85, 9, -23, 97, -102, -88, -107, 76, -29, 105, -3, -14, -21, -2, 89, -43, -115, -67, 117, 87, 40, -32, -26, -13, -2, -59, 116, -104, -40, -1, 58, -64, -47, 39, 14, 91, 104, -99, 92, 91, 37, -50, -41, 57, 70, -90, -37, 40, -80, 23, -82, -80, 11, -98, -119, -54, 6, -76, -99, 
  105, 23, -10, 16, -20, -62, 97, 19, 98, -123, -54, -9, 74, -14, -83, -33, -86, 94, 47, 64, 25, 77, 0, -34, 34, -64, -24, -71, -101, -122, -67, -61, 38, -98, 3, -28, 10, -100, 100, -3, 103, -102, 62, 103, 59, 67, -97, 87, -22, 101, 33, -55, -107, -12, 95, -35, 68, -118, 119, -63, -29, 46, -107, 41, 66, -77, -17, 16, 25, 90, -10, -70, -68, -107, 104, -43, -21, -100, -11, -4, -86, -42, -55, -74, 
  96, -18, -24, -119, -88, 30, -89, -71, 115, 19, -44, 13, -24, -70, 18, 56, 116, 73, 90, 66, -62, 99, 110, 106, 108, -66, 23, 18, 3, -105, -18, -97, 71, -73, 3, -4, 89, -111, 53, 62, 22, -91, -1, -52, 71, -113, -90, 118, 48, -16, -32, -107, 51, -97, -70, 80, 112, -110, -114, 74, 14, 57, -99, 30, -93, 53, -99, 114, 38, -38, -119, -52, 17, 93, 54, -106, 111, -72, -55, 25, 17, -76, 101, 15, 
  -56, -48, 55, 57, -29, 81, 47, -17, -32, -44, -23, 14, 29, 42, -75, 1, 17, -70, -4, -26, 37, -50, -76, -46, -99, 3, -62, -16, -118, 120, 88, 33, -110, -73, -86, 6, 115, 60, -24, -31, 20, -59, -26, -120, -70, -114, 43, 92, 73, -24, -21, -73, 65, -84, 50, 45, 17, 101, 44, -90, -30, 46, -96, 2, -81, 3, 95, 76, 35, -39, -79, -102, -59, 9, 72, -86, 119, -105, 49, 0, -54, 59, 6, -52, 
  102, 90, 32, 73, 77, -87, 34, -9, 85, -76, -72, 5, 102, -78, -86, -56, -70, 85, 64, 60, -26, 74, -52, 33, 95, 100, 19, -65, 20, 88, -83, -16, 53, -12, 60, 67, 25, -89, 58, 29, -74, -71, 97, 46, 102, 7, 48, 109, -85, 51, 41, 54, -105, 77, 101, 19, -57, 45, 9, -65, 6, -75, 1, 31, -65, 87, -77, 38, 58, -20, 45, -115, 35, -75, -42, -14, 99, 117, -56, -1, 35, 85, 98, 51, 
  -20, -50, 76, 107, 113, 33, 53, -11, 107, -109, -46, -80, -56, -3, -22, 35, -15, -90, 60, -65, -100, -6, 120, -73, -98, 105, 112, -64, 63, -30, 78, 66, -64, -15, -75, 79, 62, 85, -25, 34, 26, -97, 66, -41, 55, 107, -53, 90, -105, 72, -1, -36, -112, 120, 121, 26, -44, 18, -80, -52, -81, -93, -38, 42, -44, 6, -34, 14, -101, -24, -48, 19, 42, -35, 25, -51, 75, 94, 37, -110, 3, -38, -12, -49, 
  54, 82, 26, 99, 33, 89, -50, -2, 26, -76, -57, -90, -115, 99, -88, 42, -41, -34, -9, 64, -113, -102, 41, -22, 82, 20, 84, -9, 9, -45, 14, -39, 70, -51, 67, 40, -36, 59, 79, -10, 118, 95, -24, 115, 56, 20, -39, -66, 116, 42, 25, 54, 62, -73, 32, 22, -58, 64, 112, -58, -26, -85, -59, -53, -47, 38, -69, -5, 68, 99, -3, 105, 69, -102, 37, -71, 113, -29, 86, -28, 44, 46, -14, 49, 
  -95, -98, 13, 50, -31, -108, -17, 75, -53, -63, 107, -6, 72, 15, 115, -56, 59, 90, -114, 7, -112, 31, -2, -104, 109, 30, 74, 24, 89, -54, -89, 18, 20, 114, 32, -98, -59, 99, -27, 6, 6, -76, -48, 57, 40, -20, -58, 107, 79, 73, 62, 85, -18, 32, -55, 81, -73, -117, -16, -108, -86, -83, 56, 40, 46, 38, -22, 80, 43, 64, -14, 93, -24, 69, -48, -94, 47, 113, -18, 100, -94, 106, -18, 81, 
  49, -113, 84, -21, 69, 91, -79, 18, 48, 89, -26, -92, -107, -115, 81, 105, -26, 7, 57, -111, -69, 103, -7, 72, -110, -62, -82, 94, 8, 105, 114, -17, -12, -78, -100, 101, 70, 35, 1, 112, -110, 47, 90, 15, 99, 91, 10, 42, 61, -111, -21, 44, 10, -112, 38, 67, 53, 54, -86, 58, -79, -21, 115, 86, -41, -112, -78, -53, 2, 90, 44, -9, -24, 18, 80, -87, -91, -16, 30, 7, 46, 56, -87, -17, 
  -79, 66, 16, 43, 42, -73, -93, -37, -70, -95, 111, -115, 56, -79, -90, 12, 56, -79, -61, -62, 41, -78, -33, -22, 50, -39, -15, 114, -71, -67, -44, -74, -26, -84, 21, 50, -9, -20, 78, 114, 28, -12, 53, 22, 41, 92, 49, -82, 112, 94, -6, 48, 99, 29, 68, 102, 88, -80, 86, 9, 108, -60, 83, -65, -13, 89, 31, 63, 6, -65, 8, -32, 11, 99, -117, 72, 64, -4, 67, -121, -81, -112, -54, 36, 
  91, -55, 58, 109, 77, 75, 60, -36, -15, 98, -16, 114, -22, -75, -94, 77, 76, -61, 70, -21, 13, -27, 13, -86, -90, -117, 14, 72, 2, -103, -84, 5, -19, 56, 105, -98, -13, -35, 44, -36, 61, 74, 27, -38, -18, -76, 70, 38, -67, -64, -54, 8, -20, -68, 16, 107, -97, -66, -74, -101, -80, 86, 109, -53, -88, 17, -108, -96, -9, 65, 62, -117, -24, 37, 29, 38, 36, -84, -89, -74, -85, -97, -63, 73, 
  -80, 73, -13, -118, -68, 69, 46, 114, 101, -103, 81, -64, -2, 27, -1, 100, -97, 26, 40, 15, -81, 104, -4, 101, -2, -52, -31, 38, -11, 26, -66, -2, 36, 58, 50, 93, -45, 54, -99, 4, 16, -40, 42, 76, 15, 56, 7, 66, -32, -94, 116, 47, 27, -21, 29, 18, -1, -55, 112, -18, 14, -54, -42, 74, -110, 78, 4, -75, 7, 62, -103, -19, 113, -5, -20, 36, 31, 100, 47, 74, -92, -114, -85, 42, 
  -29, 109, -74, -35, 1, -84, -49, 1, -67, -59, 48, 46, 69, 10, -95, 38, -109, -39, -18, 81, 107, 10, 10, 3, -85, -56, 107, -66, 56, 119, 41, -117, 9, -61, -45, 57, 50, 111, -84, 97, -96, -70, -19, 87, -71, -72, -27, -75, -6, 7, 41, -107, -65, -27, -55, -108, 18, -54, 42, 48, 96, -87, 56, 30, -22, 47, -103, 123, -80, 84, -97, -18, -37, -55, -30, -81, -54, -85, -58, -84, 120, 16, -78, -100, 
  -87, -75, 14, 105, -39, -80, -56, -58, -95, -38, -13, 18, -94, 58, 69, 55, -62, -113, -53, 29, -106, 62, -9, 54, -68, -40, 83, 42, 83, 40, -80, 115, 30, -42, -101, 89, -50, -2, 14, 5, -20, 96, -22, -10, -70, -65, 77, 4, -26, 71, -12, 12, -99, 49, 62, 18, 82, 108, 12, 29, -2, 40, -44, -75, -51, -38, 38, 55, 46, -19, -8, -52, -62, 22, -102, -116, -24, -7, 16, -29, 115, 78, 48, -38, 
  15, 85, 68, -34, 82, -95, -101, -100, 52, -43, 37, -107, -109, -72, 0, 22, -65, -5, -107, 9, -97, -30, -22, -101, 121, -72, -40, 98, 75, -82, 69, 57, 78, 81, 83, 6, 15, 31, 43, -67, -76, 29, 90, 1, -32, -16, 69, -89, -19, 59, -42, 92, 29, 26, 50, -84, 71, -52, 51, -74, 80, -104, 4, 100, 68, 38, 111, 11, -48, -51, 111, 28, 85, 70, -17, 107, -82, 110, 80, -98, 57, 18, 50, 75, 
  -8, -70, -34, -37, 114, 38, 81, 71, -12, -51, 27, 52, -88, 86, -68, -112, 31, -116, -101, -84, 40, 118, -50, -25, 105, 40, -22, 35, 80, -23, -32, 96, 20, 45, -13, -85, 49, -64, -75, 118, -74, -13, 0, -35, 13, 39, -24, 0, 16, -45, 24, -111, -96, -34, -1, -49, 76, 9, 89, -64, 17, 74, -12, -101, -51, -49, -2, 58, -26, -96, -25, 13, -10, -92, -66, -71, -64, 108, -47, -104, -61, -109, 48, -13, 
  108, -66, 20, -75, -76, 29, -108, 117, 38, -20, -18, 92, -54, 25, -61, 113, -89, -59, 100, -55, 41, -107, 113, -103, 73, 2, -57, 2, 1, 71, -113, 64, 118, 65, 116, -95, -65, 37, 13, -21, -45, 16, 105, -92, -116, 8, 45, -119, -78, 97, 81, 117, 27, -24, 104, -3, -35, 80, -25, -31, -52, -71, -19, -110, 95, -113, 106, 38, 13, -13, -108, -29, 15, 15, -86, -111, 105, -76, -108, -2, -23, 101, 14, 21, 
  -117, 98, -15, -88, -103, 28, 51, -63, -38, -43, 68, -29, -68, -19, 69, -80, 9, -113, -25, -36, 82, 118, -42, 88, 28, -52, 5, -115, -106, -41, 107, -95, 90, 72, -106, 116, 48, -68, 58, 47, 71, 117, 83, 74, 72, 83, -46, 53, -15, 3, 27, 93, 67, -103, 15, 98, 96, -66, 76, 37, 77, -35, 43, -6, -98, 100, 85, -49, 11, -92, -12, 36, 13, 5, -16, -55, 63, -36, -116, 94, -37, -51, -95, -1, 
